digraph Tree {
node [shape=box, style="filled", color="black", fontname="helvetica"] ;
edge [fontname="helvetica"] ;
0 [label="x[20] <= 678.35\nsquared_error = 4.8\nsamples = 8109\nvalue = [[2.786]\n[3.97]]", fillcolor="#f2bf9b"] ;
1 [label="x[20] <= 629.45\nsquared_error = 3.348\nsamples = 4808\nvalue = [[3.117]\n[2.908]]", fillcolor="#eeac7d"] ;
0 -> 1 [labeldistance=2.5, labelangle=45, headlabel="True"] ;
2 [label="x[20] <= 584.3\nsquared_error = 2.428\nsamples = 1699\nvalue = [[3.5]\n[1.912]]", fillcolor="#eba06a"] ;
1 -> 2 ;
3 [label="x[3] <= 1.5\nsquared_error = 1.265\nsamples = 264\nvalue = [[4.099]\n[0.981]]", fillcolor="#e89153"] ;
2 -> 3 ;
4 [label="x[16] <= 7.0\nsquared_error = 1.287\nsamples = 130\nvalue = [[3.823]\n[0.799]]", fillcolor="#e89253"] ;
3 -> 4 ;
5 [label="x[20] <= 557.6\nsquared_error = 1.193\nsamples = 129\nvalue = [[3.879]\n[0.811]]", fillcolor="#e89051"] ;
4 -> 5 ;
6 [label="x[4] <= 2.5\nsquared_error = 1.259\nsamples = 37\nvalue = [[4.45]\n[0.717]]", fillcolor="#e89153"] ;
5 -> 6 ;
7 [label="x[5] <= 1.5\nsquared_error = 1.001\nsamples = 27\nvalue = [[4.628]\n[0.372]]", fillcolor="#e88e4d"] ;
6 -> 7 ;
8 [label="x[13] <= 0.5\nsquared_error = 0.556\nsamples = 25\nvalue = [[4.61]\n[0.171]]", fillcolor="#e68844"] ;
7 -> 8 ;
9 [label="x[19] <= 0.5\nsquared_error = 2.125\nsamples = 3\nvalue = [[3.5]\n[0.0]]", fillcolor="#eb9d64"] ;
8 -> 9 ;
10 [label="x[17] <= 2.0\nsquared_error = 0.111\nsamples = 2\nvalue = [[4.667]\n[0.0]]", fillcolor="#e5823b"] ;
9 -> 10 ;
11 [label="squared_error = 0.0\nsamples = 1\nvalue = [[4.0]\n[0.0]]", fillcolor="#e58139"] ;
10 -> 11 ;
12 [label="squared_error = 0.0\nsamples = 1\nvalue = [[5.0]\n[0.0]]", fillcolor="#e58139"] ;
10 -> 12 ;
13 [label="squared_error = 0.0\nsamples = 1\nvalue = [[0.0]\n[0.0]]", fillcolor="#e58139"] ;
9 -> 13 ;
14 [label="x[8] <= 2.5\nsquared_error = 0.31\nsamples = 22\nvalue = [[4.73]\n[0.189]]", fillcolor="#e6853f"] ;
8 -> 14 ;
15 [label="x[18] <= 2.5\nsquared_error = 0.271\nsamples = 21\nvalue = [[4.722]\n[0.139]]", fillcolor="#e6853f"] ;
14 -> 15 ;
16 [label="x[5] <= 0.5\nsquared_error = 0.533\nsamples = 9\nvalue = [[4.385]\n[0.308]]", fillcolor="#e68844"] ;
15 -> 16 ;
17 [label="x[17] <= 3.5\nsquared_error = 0.299\nsamples = 8\nvalue = [[4.583]\n[0.25]]", fillcolor="#e6853f"] ;
16 -> 17 ;
18 [label="x[8] <= 0.5\nsquared_error = 0.25\nsamples = 7\nvalue = [[4.7]\n[0.1]]", fillcolor="#e6843e"] ;
17 -> 18 ;
19 [label="x[20] <= 501.85\nsquared_error = 0.344\nsamples = 4\nvalue = [[4.25]\n[0.0]]", fillcolor="#e68540"] ;
18 -> 19 ;
20 [label="squared_error = 0.0\nsamples = 2\nvalue = [[5.0]\n[0.0]]", fillcolor="#e58139"] ;
19 -> 20 ;
21 [label="x[20] <= 527.1\nsquared_error = 0.125\nsamples = 2\nvalue = [[3.5]\n[0.0]]", fillcolor="#e5833c"] ;
19 -> 21 ;
22 [label="squared_error = 0.0\nsamples = 1\nvalue = [[3.0]\n[0.0]]", fillcolor="#e58139"] ;
21 -> 22 ;
23 [label="squared_error = 0.0\nsamples = 1\nvalue = [[4.0]\n[0.0]]", fillcolor="#e58139"] ;
21 -> 23 ;
24 [label="x[15] <= 2.5\nsquared_error = 0.069\nsamples = 3\nvalue = [[5.0]\n[0.167]]", fillcolor="#e5823a"] ;
18 -> 24 ;
25 [label="squared_error = 0.0\nsamples = 2\nvalue = [[5.0]\n[0.0]]", fillcolor="#e58139"] ;
24 -> 25 ;
26 [label="squared_error = 0.0\nsamples = 1\nvalue = [[5.0]\n[1.0]]", fillcolor="#e58139"] ;
24 -> 26 ;
27 [label="squared_error = 0.0\nsamples = 1\nvalue = [[4.0]\n[1.0]]", fillcolor="#e58139"] ;
17 -> 27 ;
28 [label="squared_error = 0.0\nsamples = 1\nvalue = [[2.0]\n[1.0]]", fillcolor="#e58139"] ;
16 -> 28 ;
29 [label="x[9] <= 4.5\nsquared_error = 0.06\nsamples = 12\nvalue = [[4.913]\n[0.043]]", fillcolor="#e5823a"] ;
15 -> 29 ;
30 [label="squared_error = 0.0\nsamples = 9\nvalue = [[5.0]\n[0.0]]", fillcolor="#e58139"] ;
29 -> 30 ;
31 [label="x[11] <= 6.5\nsquared_error = 0.219\nsamples = 3\nvalue = [[4.5]\n[0.25]]", fillcolor="#e6843d"] ;
29 -> 31 ;
32 [label="squared_error = 0.0\nsamples = 1\nvalue = [[4.0]\n[0.0]]", fillcolor="#e58139"] ;
31 -> 32 ;
33 [label="x[11] <= 8.0\nsquared_error = 0.125\nsamples = 2\nvalue = [[5.0]\n[0.5]]", fillcolor="#e5833c"] ;
31 -> 33 ;
34 [label="squared_error = 0.0\nsamples = 1\nvalue = [[5.0]\n[0.0]]", fillcolor="#e58139"] ;
33 -> 34 ;
35 [label="squared_error = 0.0\nsamples = 1\nvalue = [[5.0]\n[1.0]]", fillcolor="#e58139"] ;
33 -> 35 ;
36 [label="squared_error = 0.0\nsamples = 1\nvalue = [[5.0]\n[2.0]]", fillcolor="#e58139"] ;
14 -> 36 ;
37 [label="x[11] <= 7.5\nsquared_error = 1.125\nsamples = 2\nvalue = [[5.0]\n[4.5]]", fillcolor="#e89050"] ;
7 -> 37 ;
38 [label="squared_error = 0.0\nsamples = 1\nvalue = [[5.0]\n[3.0]]", fillcolor="#e58139"] ;
37 -> 38 ;
39 [label="squared_error = 0.0\nsamples = 1\nvalue = [[5.0]\n[6.0]]", fillcolor="#e58139"] ;
37 -> 39 ;
40 [label="x[20] <= 541.05\nsquared_error = 1.239\nsamples = 10\nvalue = [[4.0]\n[1.588]]", fillcolor="#e89152"] ;
6 -> 40 ;
41 [label="x[1] <= 1.5\nsquared_error = 1.2\nsamples = 2\nvalue = [[2.6]\n[1.8]]", fillcolor="#e89151"] ;
40 -> 41 ;
42 [label="squared_error = 0.0\nsamples = 1\nvalue = [[2.0]\n[0.0]]", fillcolor="#e58139"] ;
41 -> 42 ;
43 [label="squared_error = 0.0\nsamples = 1\nvalue = [[3.0]\n[3.0]]", fillcolor="#e58139"] ;
41 -> 43 ;
44 [label="x[1] <= 3.5\nsquared_error = 0.663\nsamples = 8\nvalue = [[4.583]\n[1.5]]", fillcolor="#e78a47"] ;
40 -> 44 ;
45 [label="x[15] <= 1.5\nsquared_error = 0.309\nsamples = 7\nvalue = [[4.778]\n[1.0]]", fillcolor="#e6853f"] ;
44 -> 45 ;
46 [label="squared_error = 0.0\nsamples = 2\nvalue = [[5.0]\n[0.0]]", fillcolor="#e58139"] ;
45 -> 46 ;
47 [label="x[3] <= 0.5\nsquared_error = 0.204\nsamples = 5\nvalue = [[4.714]\n[1.286]]", fillcolor="#e6843d"] ;
45 -> 47 ;
48 [label="x[13] <= 7.5\nsquared_error = 0.125\nsamples = 2\nvalue = [[4.5]\n[2.0]]", fillcolor="#e5833c"] ;
47 -> 48 ;
49 [label="squared_error = 0.0\nsamples = 1\nvalue = [[5.0]\n[2.0]]", fillcolor="#e58139"] ;
48 -> 49 ;
50 [label="squared_error = 0.0\nsamples = 1\nvalue = [[4.0]\n[2.0]]", fillcolor="#e58139"] ;
48 -> 50 ;
51 [label="x[13] <= 5.5\nsquared_error = 0.08\nsamples = 3\nvalue = [[4.8]\n[1.0]]", fillcolor="#e5823b"] ;
47 -> 51 ;
52 [label="squared_error = 0.0\nsamples = 1\nvalue = [[4.0]\n[1.0]]", fillcolor="#e58139"] ;
51 -> 52 ;
53 [label="squared_error = 0.0\nsamples = 2\nvalue = [[5.0]\n[1.0]]", fillcolor="#e58139"] ;
51 -> 53 ;
54 [label="squared_error = 0.0\nsamples = 1\nvalue = [[4.0]\n[3.0]]", fillcolor="#e58139"] ;
44 -> 54 ;
55 [label="x[6] <= 1.5\nsquared_error = 1.069\nsamples = 92\nvalue = [[3.644]\n[0.849]]", fillcolor="#e88f4f"] ;
5 -> 55 ;
56 [label="x[14] <= 1.5\nsquared_error = 0.74\nsamples = 38\nvalue = [[4.203]\n[0.797]]", fillcolor="#e78b48"] ;
55 -> 56 ;
57 [label="x[17] <= 2.5\nsquared_error = 0.69\nsamples = 30\nvalue = [[4.022]\n[1.109]]", fillcolor="#e78a47"] ;
56 -> 57 ;
58 [label="x[12] <= 3.5\nsquared_error = 0.769\nsamples = 19\nvalue = [[3.679]\n[1.036]]", fillcolor="#e78b49"] ;
57 -> 58 ;
59 [label="x[1] <= 1.5\nsquared_error = 0.5\nsamples = 8\nvalue = [[4.2]\n[0.4]]", fillcolor="#e68743"] ;
58 -> 59 ;
60 [label="x[8] <= 2.0\nsquared_error = 0.375\nsamples = 7\nvalue = [[4.5]\n[0.5]]", fillcolor="#e68641"] ;
59 -> 60 ;
61 [label="x[11] <= 8.0\nsquared_error = 0.224\nsamples = 6\nvalue = [[4.429]\n[0.286]]", fillcolor="#e6843e"] ;
60 -> 61 ;
62 [label="x[11] <= 4.0\nsquared_error = 0.094\nsamples = 3\nvalue = [[4.0]\n[0.25]]", fillcolor="#e5823b"] ;
61 -> 62 ;
63 [label="squared_error = 0.0\nsamples = 1\nvalue = [[4.0]\n[1.0]]", fillcolor="#e58139"] ;
62 -> 63 ;
64 [label="squared_error = 0.0\nsamples = 2\nvalue = [[4.0]\n[0.0]]", fillcolor="#e58139"] ;
62 -> 64 ;
65 [label="x[20] <= 573.6\nsquared_error = 0.111\nsamples = 3\nvalue = [[5.0]\n[0.333]]", fillcolor="#e5823b"] ;
61 -> 65 ;
66 [label="squared_error = 0.0\nsamples = 2\nvalue = [[5.0]\n[0.0]]", fillcolor="#e58139"] ;
65 -> 66 ;
67 [label="squared_error = 0.0\nsamples = 1\nvalue = [[5.0]\n[1.0]]", fillcolor="#e58139"] ;
65 -> 67 ;
68 [label="squared_error = 0.0\nsamples = 1\nvalue = [[5.0]\n[2.0]]", fillcolor="#e58139"] ;
60 -> 68 ;
69 [label="squared_error = 0.0\nsamples = 1\nvalue = [[3.0]\n[0.0]]", fillcolor="#e58139"] ;
59 -> 69 ;
70 [label="x[11] <= 2.5\nsquared_error = 0.627\nsamples = 11\nvalue = [[3.389]\n[1.389]]", fillcolor="#e78946"] ;
58 -> 70 ;
71 [label="squared_error = 0.0\nsamples = 1\nvalue = [[4.0]\n[3.0]]", fillcolor="#e58139"] ;
70 -> 71 ;
72 [label="x[20] <= 579.25\nsquared_error = 0.496\nsamples = 10\nvalue = [[3.312]\n[1.188]]", fillcolor="#e68743"] ;
70 -> 72 ;
73 [label="x[7] <= 3.5\nsquared_error = 0.471\nsamples = 9\nvalue = [[3.455]\n[0.818]]", fillcolor="#e68743"] ;
72 -> 73 ;
74 [label="x[15] <= 1.5\nsquared_error = 0.219\nsamples = 6\nvalue = [[3.75]\n[0.5]]", fillcolor="#e6843d"] ;
73 -> 74 ;
75 [label="x[2] <= 2.5\nsquared_error = 0.125\nsamples = 3\nvalue = [[3.5]\n[0.0]]", fillcolor="#e5833c"] ;
74 -> 75 ;
76 [label="squared_error = 0.0\nsamples = 1\nvalue = [[4.0]\n[0.0]]", fillcolor="#e58139"] ;
75 -> 76 ;
77 [label="squared_error = 0.0\nsamples = 2\nvalue = [[3.0]\n[0.0]]", fillcolor="#e58139"] ;
75 -> 77 ;
78 [label="squared_error = 0.0\nsamples = 3\nvalue = [[4.0]\n[1.0]]", fillcolor="#e58139"] ;
74 -> 78 ;
79 [label="x[19] <= 0.5\nsquared_error = 0.222\nsamples = 3\nvalue = [[2.667]\n[1.667]]", fillcolor="#e6843e"] ;
73 -> 79 ;
80 [label="squared_error = 0.0\nsamples = 1\nvalue = [[2.0]\n[1.0]]", fillcolor="#e58139"] ;
79 -> 80 ;
81 [label="squared_error = 0.0\nsamples = 2\nvalue = [[3.0]\n[2.0]]", fillcolor="#e58139"] ;
79 -> 81 ;
82 [label="squared_error = 0.0\nsamples = 1\nvalue = [[3.0]\n[2.0]]", fillcolor="#e58139"] ;
72 -> 82 ;
83 [label="x[7] <= 2.5\nsquared_error = 0.321\nsamples = 11\nvalue = [[4.556]\n[1.222]]", fillcolor="#e68540"] ;
57 -> 83 ;
84 [label="x[2] <= 0.5\nsquared_error = 0.111\nsamples = 5\nvalue = [[5.0]\n[1.0]]", fillcolor="#e5823b"] ;
83 -> 84 ;
85 [label="squared_error = 0.0\nsamples = 1\nvalue = [[5.0]\n[0.0]]", fillcolor="#e58139"] ;
84 -> 85 ;
86 [label="x[8] <= 0.5\nsquared_error = 0.055\nsamples = 4\nvalue = [[5.0]\n[1.125]]", fillcolor="#e5823a"] ;
84 -> 86 ;
87 [label="squared_error = 0.0\nsamples = 3\nvalue = [[5.0]\n[1.0]]", fillcolor="#e58139"] ;
86 -> 87 ;
88 [label="squared_error = 0.0\nsamples = 1\nvalue = [[5.0]\n[2.0]]", fillcolor="#e58139"] ;
86 -> 88 ;
89 [label="x[18] <= 3.5\nsquared_error = 0.284\nsamples = 6\nvalue = [[4.111]\n[1.444]]", fillcolor="#e6853f"] ;
83 -> 89 ;
90 [label="x[1] <= 0.5\nsquared_error = 0.188\nsamples = 3\nvalue = [[4.25]\n[0.75]]", fillcolor="#e6833d"] ;
89 -> 90 ;
91 [label="x[7] <= 7.0\nsquared_error = 0.111\nsamples = 2\nvalue = [[4.333]\n[1.0]]", fillcolor="#e5823b"] ;
90 -> 91 ;
92 [label="squared_error = 0.0\nsamples = 1\nvalue = [[4.0]\n[1.0]]", fillcolor="#e58139"] ;
91 -> 92 ;
93 [label="squared_error = 0.0\nsamples = 1\nvalue = [[5.0]\n[1.0]]", fillcolor="#e58139"] ;
91 -> 93 ;
94 [label="squared_error = 0.0\nsamples = 1\nvalue = [[4.0]\n[0.0]]", fillcolor="#e58139"] ;
90 -> 94 ;
95 [label="squared_error = 0.0\nsamples = 3\nvalue = [[4.0]\n[2.0]]", fillcolor="#e58139"] ;
89 -> 95 ;
96 [label="x[20] <= 564.7\nsquared_error = 0.278\nsamples = 8\nvalue = [[4.667]\n[0.0]]", fillcolor="#e6853f"] ;
56 -> 96 ;
97 [label="squared_error = 0.0\nsamples = 1\nvalue = [[2.0]\n[0.0]]", fillcolor="#e58139"] ;
96 -> 97 ;
98 [label="x[11] <= 6.5\nsquared_error = 0.073\nsamples = 7\nvalue = [[4.824]\n[0.0]]", fillcolor="#e5823a"] ;
96 -> 98 ;
99 [label="squared_error = 0.0\nsamples = 5\nvalue = [[5.0]\n[0.0]]", fillcolor="#e58139"] ;
98 -> 99 ;
100 [label="squared_error = 0.0\nsamples = 2\nvalue = [[4.0]\n[0.0]]", fillcolor="#e58139"] ;
98 -> 100 ;
101 [label="x[2] <= 0.5\nsquared_error = 1.107\nsamples = 54\nvalue = [[3.207]\n[0.89]]", fillcolor="#e88f50"] ;
55 -> 101 ;
102 [label="x[8] <= 0.5\nsquared_error = 0.844\nsamples = 3\nvalue = [[1.0]\n[0.25]]", fillcolor="#e78c4a"] ;
101 -> 102 ;
103 [label="x[3] <= 0.5\nsquared_error = 0.111\nsamples = 2\nvalue = [[0.333]\n[0.0]]", fillcolor="#e5823b"] ;
102 -> 103 ;
104 [label="squared_error = 0.0\nsamples = 1\nvalue = [[1.0]\n[0.0]]", fillcolor="#e58139"] ;
103 -> 104 ;
105 [label="squared_error = 0.0\nsamples = 1\nvalue = [[0.0]\n[0.0]]", fillcolor="#e58139"] ;
103 -> 105 ;
106 [label="squared_error = 0.0\nsamples = 1\nvalue = [[3.0]\n[1.0]]", fillcolor="#e58139"] ;
102 -> 106 ;
107 [label="x[2] <= 5.0\nsquared_error = 0.978\nsamples = 51\nvalue = [[3.321]\n[0.923]]", fillcolor="#e88e4d"] ;
101 -> 107 ;
108 [label="x[2] <= 2.5\nsquared_error = 0.943\nsamples = 47\nvalue = [[3.219]\n[0.89]]", fillcolor="#e88d4c"] ;
107 -> 108 ;
109 [label="x[8] <= 1.5\nsquared_error = 0.823\nsamples = 28\nvalue = [[3.63]\n[1.022]]", fillcolor="#e78c4a"] ;
108 -> 109 ;
110 [label="x[20] <= 567.35\nsquared_error = 0.808\nsamples = 17\nvalue = [[3.222]\n[0.963]]", fillcolor="#e78b49"] ;
109 -> 110 ;
111 [label="x[17] <= 3.5\nsquared_error = 0.592\nsamples = 4\nvalue = [[4.286]\n[0.857]]", fillcolor="#e78945"] ;
110 -> 111 ;
112 [label="squared_error = 0.0\nsamples = 2\nvalue = [[4.0]\n[0.0]]", fillcolor="#e58139"] ;
111 -> 112 ;
113 [label="x[13] <= 4.5\nsquared_error = 0.111\nsamples = 2\nvalue = [[4.667]\n[2.0]]", fillcolor="#e5823b"] ;
111 -> 113 ;
114 [label="squared_error = 0.0\nsamples = 1\nvalue = [[5.0]\n[2.0]]", fillcolor="#e58139"] ;
113 -> 114 ;
115 [label="squared_error = 0.0\nsamples = 1\nvalue = [[4.0]\n[2.0]]", fillcolor="#e58139"] ;
113 -> 115 ;
116 [label="x[10] <= 1.0\nsquared_error = 0.614\nsamples = 13\nvalue = [[2.85]\n[1.0]]", fillcolor="#e78946"] ;
110 -> 116 ;
117 [label="x[20] <= 574.45\nsquared_error = 0.582\nsamples = 10\nvalue = [[3.133]\n[0.867]]", fillcolor="#e78945"] ;
116 -> 117 ;
118 [label="x[1] <= 1.5\nsquared_error = 0.12\nsamples = 3\nvalue = [[3.4]\n[0.0]]", fillcolor="#e5833b"] ;
117 -> 118 ;
119 [label="squared_error = 0.0\nsamples = 1\nvalue = [[3.0]\n[0.0]]", fillcolor="#e58139"] ;
118 -> 119 ;
120 [label="squared_error = 0.0\nsamples = 2\nvalue = [[4.0]\n[0.0]]", fillcolor="#e58139"] ;
118 -> 120 ;
121 [label="x[0] <= 1.5\nsquared_error = 0.505\nsamples = 7\nvalue = [[3.0]\n[1.3]]", fillcolor="#e68843"] ;
117 -> 121 ;
122 [label="x[7] <= 4.0\nsquared_error = 0.222\nsamples = 3\nvalue = [[2.667]\n[2.333]]", fillcolor="#e6843e"] ;
121 -> 122 ;
123 [label="squared_error = 0.0\nsamples = 1\nvalue = [[2.0]\n[3.0]]", fillcolor="#e58139"] ;
122 -> 123 ;
124 [label="squared_error = 0.0\nsamples = 2\nvalue = [[3.0]\n[2.0]]", fillcolor="#e58139"] ;
122 -> 124 ;
125 [label="x[15] <= 2.0\nsquared_error = 0.265\nsamples = 4\nvalue = [[3.143]\n[0.857]]", fillcolor="#e6843e"] ;
121 -> 125 ;
126 [label="x[19] <= 0.5\nsquared_error = 0.16\nsamples = 3\nvalue = [[2.8]\n[0.8]]", fillcolor="#e5833c"] ;
125 -> 126 ;
127 [label="x[1] <= 1.0\nsquared_error = 0.094\nsamples = 2\nvalue = [[3.0]\n[0.75]]", fillcolor="#e5823b"] ;
126 -> 127 ;
128 [label="squared_error = 0.0\nsamples = 1\nvalue = [[3.0]\n[1.0]]", fillcolor="#e58139"] ;
127 -> 128 ;
129 [label="squared_error = 0.0\nsamples = 1\nvalue = [[3.0]\n[0.0]]", fillcolor="#e58139"] ;
127 -> 129 ;
130 [label="squared_error = 0.0\nsamples = 1\nvalue = [[2.0]\n[1.0]]", fillcolor="#e58139"] ;
126 -> 130 ;
131 [label="squared_error = 0.0\nsamples = 1\nvalue = [[4.0]\n[1.0]]", fillcolor="#e58139"] ;
125 -> 131 ;
132 [label="x[20] <= 568.2\nsquared_error = 0.12\nsamples = 3\nvalue = [[2.0]\n[1.4]]", fillcolor="#e5833b"] ;
116 -> 132 ;
133 [label="squared_error = 0.0\nsamples = 1\nvalue = [[2.0]\n[2.0]]", fillcolor="#e58139"] ;
132 -> 133 ;
134 [label="squared_error = 0.0\nsamples = 2\nvalue = [[2.0]\n[1.0]]", fillcolor="#e58139"] ;
132 -> 134 ;
135 [label="x[20] <= 565.45\nsquared_error = 0.551\nsamples = 11\nvalue = [[4.211]\n[1.105]]", fillcolor="#e68844"] ;
109 -> 135 ;
136 [label="x[20] <= 562.7\nsquared_error = 0.359\nsamples = 4\nvalue = [[3.625]\n[1.625]]", fillcolor="#e68640"] ;
135 -> 136 ;
137 [label="x[8] <= 2.5\nsquared_error = 0.2\nsamples = 3\nvalue = [[4.0]\n[2.0]]", fillcolor="#e6843d"] ;
136 -> 137 ;
138 [label="squared_error = 0.0\nsamples = 1\nvalue = [[5.0]\n[2.0]]", fillcolor="#e58139"] ;
137 -> 138 ;
139 [label="x[16] <= 0.5\nsquared_error = 0.094\nsamples = 2\nvalue = [[3.75]\n[2.0]]", fillcolor="#e5823b"] ;
137 -> 139 ;
140 [label="squared_error = 0.0\nsamples = 1\nvalue = [[4.0]\n[2.0]]", fillcolor="#e58139"] ;
139 -> 140 ;
141 [label="squared_error = 0.0\nsamples = 1\nvalue = [[3.0]\n[2.0]]", fillcolor="#e58139"] ;
139 -> 141 ;
142 [label="squared_error = 0.0\nsamples = 1\nvalue = [[3.0]\n[1.0]]", fillcolor="#e58139"] ;
136 -> 142 ;
143 [label="x[13] <= 1.5\nsquared_error = 0.306\nsamples = 7\nvalue = [[4.636]\n[0.727]]", fillcolor="#e6853f"] ;
135 -> 143 ;
144 [label="squared_error = 0.0\nsamples = 2\nvalue = [[4.0]\n[0.0]]", fillcolor="#e58139"] ;
143 -> 144 ;
145 [label="x[17] <= 2.5\nsquared_error = 0.18\nsamples = 5\nvalue = [[4.875]\n[1.0]]", fillcolor="#e5833d"] ;
143 -> 145 ;
146 [label="squared_error = 0.0\nsamples = 1\nvalue = [[5.0]\n[0.0]]", fillcolor="#e58139"] ;
145 -> 146 ;
147 [label="x[0] <= 3.5\nsquared_error = 0.122\nsamples = 4\nvalue = [[4.857]\n[1.143]]", fillcolor="#e5833b"] ;
145 -> 147 ;
148 [label="x[12] <= 2.0\nsquared_error = 0.069\nsamples = 3\nvalue = [[5.0]\n[1.167]]", fillcolor="#e5823a"] ;
147 -> 148 ;
149 [label="squared_error = 0.0\nsamples = 1\nvalue = [[5.0]\n[2.0]]", fillcolor="#e58139"] ;
148 -> 149 ;
150 [label="squared_error = 0.0\nsamples = 2\nvalue = [[5.0]\n[1.0]]", fillcolor="#e58139"] ;
148 -> 150 ;
151 [label="squared_error = 0.0\nsamples = 1\nvalue = [[4.0]\n[1.0]]", fillcolor="#e58139"] ;
147 -> 151 ;
152 [label="x[12] <= 0.5\nsquared_error = 0.717\nsamples = 19\nvalue = [[2.519]\n[0.667]]", fillcolor="#e78a48"] ;
108 -> 152 ;
153 [label="x[10] <= 0.5\nsquared_error = 0.333\nsamples = 3\nvalue = [[4.0]\n[1.0]]", fillcolor="#e68540"] ;
152 -> 153 ;
154 [label="squared_error = 0.0\nsamples = 1\nvalue = [[4.0]\n[2.0]]", fillcolor="#e58139"] ;
153 -> 154 ;
155 [label="x[10] <= 2.5\nsquared_error = 0.125\nsamples = 2\nvalue = [[4.0]\n[0.5]]", fillcolor="#e5833c"] ;
153 -> 155 ;
156 [label="squared_error = 0.0\nsamples = 1\nvalue = [[4.0]\n[1.0]]", fillcolor="#e58139"] ;
155 -> 156 ;
157 [label="squared_error = 0.0\nsamples = 1\nvalue = [[4.0]\n[0.0]]", fillcolor="#e58139"] ;
155 -> 157 ;
158 [label="x[7] <= 8.5\nsquared_error = 0.603\nsamples = 16\nvalue = [[2.333]\n[0.625]]", fillcolor="#e78945"] ;
152 -> 158 ;
159 [label="x[0] <= 1.5\nsquared_error = 0.465\nsamples = 15\nvalue = [[2.217]\n[0.609]]", fillcolor="#e68742"] ;
158 -> 159 ;
160 [label="x[20] <= 575.75\nsquared_error = 0.16\nsamples = 8\nvalue = [[2.2]\n[0.2]]", fillcolor="#e5833c"] ;
159 -> 160 ;
161 [label="x[9] <= 3.5\nsquared_error = 0.041\nsamples = 5\nvalue = [[2.091]\n[0.0]]", fillcolor="#e5823a"] ;
160 -> 161 ;
162 [label="squared_error = 0.0\nsamples = 4\nvalue = [[2.0]\n[0.0]]", fillcolor="#e58139"] ;
161 -> 162 ;
163 [label="squared_error = 0.0\nsamples = 1\nvalue = [[3.0]\n[0.0]]", fillcolor="#e58139"] ;
161 -> 163 ;
164 [label="x[7] <= 1.0\nsquared_error = 0.219\nsamples = 3\nvalue = [[2.5]\n[0.75]]", fillcolor="#e6843d"] ;
160 -> 164 ;
165 [label="squared_error = 0.0\nsamples = 1\nvalue = [[3.0]\n[1.0]]", fillcolor="#e58139"] ;
164 -> 165 ;
166 [label="x[11] <= 7.5\nsquared_error = 0.125\nsamples = 2\nvalue = [[2.0]\n[0.5]]", fillcolor="#e5833c"] ;
164 -> 166 ;
167 [label="squared_error = 0.0\nsamples = 1\nvalue = [[2.0]\n[1.0]]", fillcolor="#e58139"] ;
166 -> 167 ;
168 [label="squared_error = 0.0\nsamples = 1\nvalue = [[2.0]\n[0.0]]", fillcolor="#e58139"] ;
166 -> 168 ;
169 [label="x[8] <= 1.5\nsquared_error = 0.586\nsamples = 7\nvalue = [[2.25]\n[1.375]]", fillcolor="#e78945"] ;
159 -> 169 ;
170 [label="x[0] <= 2.5\nsquared_error = 0.4\nsamples = 5\nvalue = [[2.6]\n[1.8]]", fillcolor="#e68641"] ;
169 -> 170 ;
171 [label="x[7] <= 2.5\nsquared_error = 0.222\nsamples = 3\nvalue = [[2.333]\n[1.333]]", fillcolor="#e6843e"] ;
170 -> 171 ;
172 [label="x[18] <= 3.0\nsquared_error = 0.125\nsamples = 2\nvalue = [[2.5]\n[1.0]]", fillcolor="#e5833c"] ;
171 -> 172 ;
173 [label="squared_error = 0.0\nsamples = 1\nvalue = [[3.0]\n[1.0]]", fillcolor="#e58139"] ;
172 -> 173 ;
174 [label="squared_error = 0.0\nsamples = 1\nvalue = [[2.0]\n[1.0]]", fillcolor="#e58139"] ;
172 -> 174 ;
175 [label="squared_error = 0.0\nsamples = 1\nvalue = [[2.0]\n[2.0]]", fillcolor="#e58139"] ;
171 -> 175 ;
176 [label="x[1] <= 1.5\nsquared_error = 0.125\nsamples = 2\nvalue = [[3.0]\n[2.5]]", fillcolor="#e5833c"] ;
170 -> 176 ;
177 [label="squared_error = 0.0\nsamples = 1\nvalue = [[3.0]\n[2.0]]", fillcolor="#e58139"] ;
176 -> 177 ;
178 [label="squared_error = 0.0\nsamples = 1\nvalue = [[3.0]\n[3.0]]", fillcolor="#e58139"] ;
176 -> 178 ;
179 [label="x[10] <= 2.5\nsquared_error = 0.222\nsamples = 2\nvalue = [[1.667]\n[0.667]]", fillcolor="#e6843e"] ;
169 -> 179 ;
180 [label="squared_error = 0.0\nsamples = 1\nvalue = [[1.0]\n[0.0]]", fillcolor="#e58139"] ;
179 -> 180 ;
181 [label="squared_error = 0.0\nsamples = 1\nvalue = [[2.0]\n[1.0]]", fillcolor="#e58139"] ;
179 -> 181 ;
182 [label="squared_error = 0.0\nsamples = 1\nvalue = [[5.0]\n[1.0]]", fillcolor="#e58139"] ;
158 -> 182 ;
183 [label="x[1] <= 1.0\nsquared_error = 0.2\nsamples = 4\nvalue = [[4.8]\n[1.4]]", fillcolor="#e6843d"] ;
107 -> 183 ;
184 [label="x[20] <= 569.8\nsquared_error = 0.125\nsamples = 2\nvalue = [[4.5]\n[2.0]]", fillcolor="#e5833c"] ;
183 -> 184 ;
185 [label="squared_error = 0.0\nsamples = 1\nvalue = [[5.0]\n[2.0]]", fillcolor="#e58139"] ;
184 -> 185 ;
186 [label="squared_error = 0.0\nsamples = 1\nvalue = [[4.0]\n[2.0]]", fillcolor="#e58139"] ;
184 -> 186 ;
187 [label="squared_error = 0.0\nsamples = 2\nvalue = [[5.0]\n[1.0]]", fillcolor="#e58139"] ;
183 -> 187 ;
188 [label="squared_error = 0.0\nsamples = 1\nvalue = [[0.0]\n[0.0]]", fillcolor="#e58139"] ;
4 -> 188 ;
189 [label="x[8] <= 0.5\nsquared_error = 1.129\nsamples = 134\nvalue = [[4.382]\n[1.167]]", fillcolor="#e89050"] ;
3 -> 189 ;
190 [label="x[7] <= 3.5\nsquared_error = 0.904\nsamples = 42\nvalue = [[4.393]\n[0.656]]", fillcolor="#e78d4b"] ;
189 -> 190 ;
191 [label="x[4] <= 7.5\nsquared_error = 0.646\nsamples = 36\nvalue = [[4.509]\n[0.472]]", fillcolor="#e78946"] ;
190 -> 191 ;
192 [label="x[2] <= 6.5\nsquared_error = 0.395\nsamples = 32\nvalue = [[4.489]\n[0.277]]", fillcolor="#e68641"] ;
191 -> 192 ;
193 [label="x[13] <= 9.5\nsquared_error = 0.319\nsamples = 31\nvalue = [[4.5]\n[0.217]]", fillcolor="#e6853f"] ;
192 -> 193 ;
194 [label="x[15] <= 0.5\nsquared_error = 0.351\nsamples = 24\nvalue = [[4.343]\n[0.257]]", fillcolor="#e68640"] ;
193 -> 194 ;
195 [label="squared_error = 0.0\nsamples = 1\nvalue = [[2.0]\n[0.0]]", fillcolor="#e58139"] ;
194 -> 195 ;
196 [label="x[12] <= 6.5\nsquared_error = 0.277\nsamples = 23\nvalue = [[4.412]\n[0.265]]", fillcolor="#e6853f"] ;
194 -> 196 ;
197 [label="x[4] <= 3.5\nsquared_error = 0.193\nsamples = 11\nvalue = [[4.125]\n[0.188]]", fillcolor="#e6843d"] ;
196 -> 197 ;
198 [label="x[1] <= 1.5\nsquared_error = 0.156\nsamples = 10\nvalue = [[4.0]\n[0.214]]", fillcolor="#e5833c"] ;
197 -> 198 ;
199 [label="x[7] <= 1.0\nsquared_error = 0.045\nsamples = 7\nvalue = [[3.9]\n[0.0]]", fillcolor="#e5823a"] ;
198 -> 199 ;
200 [label="squared_error = 0.0\nsamples = 1\nvalue = [[3.0]\n[0.0]]", fillcolor="#e58139"] ;
199 -> 200 ;
201 [label="squared_error = 0.0\nsamples = 6\nvalue = [[4.0]\n[0.0]]", fillcolor="#e58139"] ;
199 -> 201 ;
202 [label="x[3] <= 4.0\nsquared_error = 0.188\nsamples = 3\nvalue = [[4.25]\n[0.75]]", fillcolor="#e6833d"] ;
198 -> 202 ;
203 [label="squared_error = 0.0\nsamples = 2\nvalue = [[4.0]\n[1.0]]", fillcolor="#e58139"] ;
202 -> 203 ;
204 [label="squared_error = 0.0\nsamples = 1\nvalue = [[5.0]\n[0.0]]", fillcolor="#e58139"] ;
202 -> 204 ;
205 [label="squared_error = 0.0\nsamples = 1\nvalue = [[5.0]\n[0.0]]", fillcolor="#e58139"] ;
197 -> 205 ;
206 [label="x[20] <= 558.65\nsquared_error = 0.278\nsamples = 12\nvalue = [[4.667]\n[0.333]]", fillcolor="#e6853f"] ;
196 -> 206 ;
207 [label="x[11] <= 4.0\nsquared_error = 0.055\nsamples = 5\nvalue = [[5.0]\n[0.125]]", fillcolor="#e5823a"] ;
206 -> 207 ;
208 [label="squared_error = 0.0\nsamples = 1\nvalue = [[5.0]\n[1.0]]", fillcolor="#e58139"] ;
207 -> 208 ;
209 [label="squared_error = 0.0\nsamples = 4\nvalue = [[5.0]\n[0.0]]", fillcolor="#e58139"] ;
207 -> 209 ;
210 [label="x[3] <= 2.5\nsquared_error = 0.345\nsamples = 7\nvalue = [[4.4]\n[0.5]]", fillcolor="#e68540"] ;
206 -> 210 ;
211 [label="squared_error = 0.0\nsamples = 1\nvalue = [[5.0]\n[2.0]]", fillcolor="#e58139"] ;
210 -> 211 ;
212 [label="x[4] <= 3.5\nsquared_error = 0.222\nsamples = 6\nvalue = [[4.333]\n[0.333]]", fillcolor="#e6843e"] ;
210 -> 212 ;
213 [label="x[0] <= 1.5\nsquared_error = 0.125\nsamples = 4\nvalue = [[4.5]\n[0.0]]", fillcolor="#e5833c"] ;
212 -> 213 ;
214 [label="squared_error = 0.0\nsamples = 2\nvalue = [[4.0]\n[0.0]]", fillcolor="#e58139"] ;
213 -> 214 ;
215 [label="squared_error = 0.0\nsamples = 2\nvalue = [[5.0]\n[0.0]]", fillcolor="#e58139"] ;
213 -> 215 ;
216 [label="squared_error = 0.0\nsamples = 2\nvalue = [[4.0]\n[1.0]]", fillcolor="#e58139"] ;
212 -> 216 ;
217 [label="x[17] <= 1.5\nsquared_error = 0.041\nsamples = 7\nvalue = [[5.0]\n[0.091]]", fillcolor="#e5823a"] ;
193 -> 217 ;
218 [label="x[9] <= 3.0\nsquared_error = 0.125\nsamples = 2\nvalue = [[5.0]\n[0.5]]", fillcolor="#e5833c"] ;
217 -> 218 ;
219 [label="squared_error = 0.0\nsamples = 1\nvalue = [[5.0]\n[1.0]]", fillcolor="#e58139"] ;
218 -> 219 ;
220 [label="squared_error = 0.0\nsamples = 1\nvalue = [[5.0]\n[0.0]]", fillcolor="#e58139"] ;
218 -> 220 ;
221 [label="squared_error = 0.0\nsamples = 5\nvalue = [[5.0]\n[0.0]]", fillcolor="#e58139"] ;
217 -> 221 ;
222 [label="squared_error = 0.0\nsamples = 1\nvalue = [[4.0]\n[3.0]]", fillcolor="#e58139"] ;
192 -> 222 ;
223 [label="x[5] <= 1.0\nsquared_error = 1.278\nsamples = 4\nvalue = [[4.667]\n[2.0]]", fillcolor="#e89253"] ;
191 -> 223 ;
224 [label="squared_error = 0.0\nsamples = 2\nvalue = [[5.0]\n[3.0]]", fillcolor="#e58139"] ;
223 -> 224 ;
225 [label="x[5] <= 2.5\nsquared_error = 0.5\nsamples = 2\nvalue = [[4.0]\n[0.0]]", fillcolor="#e68743"] ;
223 -> 225 ;
226 [label="squared_error = 0.0\nsamples = 1\nvalue = [[3.0]\n[0.0]]", fillcolor="#e58139"] ;
225 -> 226 ;
227 [label="squared_error = 0.0\nsamples = 1\nvalue = [[5.0]\n[0.0]]", fillcolor="#e58139"] ;
225 -> 227 ;
228 [label="x[2] <= 1.5\nsquared_error = 1.422\nsamples = 6\nvalue = [[3.625]\n[1.875]]", fillcolor="#e99356"] ;
190 -> 228 ;
229 [label="x[17] <= 6.0\nsquared_error = 0.75\nsamples = 2\nvalue = [[2.5]\n[2.5]]", fillcolor="#e78b48"] ;
228 -> 229 ;
230 [label="squared_error = 0.0\nsamples = 1\nvalue = [[1.0]\n[1.0]]", fillcolor="#e58139"] ;
229 -> 230 ;
231 [label="squared_error = 0.0\nsamples = 1\nvalue = [[3.0]\n[3.0]]", fillcolor="#e58139"] ;
229 -> 231 ;
232 [label="x[15] <= 3.0\nsquared_error = 0.438\nsamples = 4\nvalue = [[4.75]\n[1.25]]", fillcolor="#e68742"] ;
228 -> 232 ;
233 [label="x[20] <= 579.0\nsquared_error = 0.25\nsamples = 2\nvalue = [[4.5]\n[0.5]]", fillcolor="#e6843e"] ;
232 -> 233 ;
234 [label="squared_error = 0.0\nsamples = 1\nvalue = [[4.0]\n[1.0]]", fillcolor="#e58139"] ;
233 -> 234 ;
235 [label="squared_error = 0.0\nsamples = 1\nvalue = [[5.0]\n[0.0]]", fillcolor="#e58139"] ;
233 -> 235 ;
236 [label="squared_error = 0.0\nsamples = 2\nvalue = [[5.0]\n[2.0]]", fillcolor="#e58139"] ;
232 -> 236 ;
237 [label="x[10] <= 0.5\nsquared_error = 1.145\nsamples = 92\nvalue = [[4.378]\n[1.385]]", fillcolor="#e89050"] ;
189 -> 237 ;
238 [label="x[5] <= 2.5\nsquared_error = 0.737\nsamples = 40\nvalue = [[4.781]\n[1.094]]", fillcolor="#e78b48"] ;
237 -> 238 ;
239 [label="x[13] <= 7.5\nsquared_error = 0.519\nsamples = 33\nvalue = [[4.769]\n[0.846]]", fillcolor="#e68844"] ;
238 -> 239 ;
240 [label="x[8] <= 5.5\nsquared_error = 0.351\nsamples = 19\nvalue = [[4.733]\n[0.4]]", fillcolor="#e68640"] ;
239 -> 240 ;
241 [label="x[20] <= 569.7\nsquared_error = 0.307\nsamples = 18\nvalue = [[4.793]\n[0.414]]", fillcolor="#e6853f"] ;
240 -> 241 ;
242 [label="x[0] <= 1.5\nsquared_error = 0.389\nsamples = 9\nvalue = [[4.833]\n[0.833]]", fillcolor="#e68641"] ;
241 -> 242 ;
243 [label="x[2] <= 2.5\nsquared_error = 0.19\nsamples = 8\nvalue = [[4.818]\n[0.636]]", fillcolor="#e6833d"] ;
242 -> 243 ;
244 [label="x[7] <= 2.5\nsquared_error = 0.2\nsamples = 5\nvalue = [[4.6]\n[0.2]]", fillcolor="#e6843d"] ;
243 -> 244 ;
245 [label="x[9] <= 2.5\nsquared_error = 0.111\nsamples = 3\nvalue = [[5.0]\n[0.333]]", fillcolor="#e5823b"] ;
244 -> 245 ;
246 [label="squared_error = 0.0\nsamples = 2\nvalue = [[5.0]\n[0.0]]", fillcolor="#e58139"] ;
245 -> 246 ;
247 [label="squared_error = 0.0\nsamples = 1\nvalue = [[5.0]\n[1.0]]", fillcolor="#e58139"] ;
245 -> 247 ;
248 [label="squared_error = 0.0\nsamples = 2\nvalue = [[4.0]\n[0.0]]", fillcolor="#e58139"] ;
244 -> 248 ;
249 [label="squared_error = 0.0\nsamples = 3\nvalue = [[5.0]\n[1.0]]", fillcolor="#e58139"] ;
243 -> 249 ;
250 [label="squared_error = 0.0\nsamples = 1\nvalue = [[5.0]\n[3.0]]", fillcolor="#e58139"] ;
242 -> 250 ;
251 [label="x[19] <= 0.5\nsquared_error = 0.142\nsamples = 9\nvalue = [[4.765]\n[0.118]]", fillcolor="#e5833c"] ;
241 -> 251 ;
252 [label="x[17] <= 0.5\nsquared_error = 0.111\nsamples = 3\nvalue = [[4.0]\n[0.333]]", fillcolor="#e5823b"] ;
251 -> 252 ;
253 [label="squared_error = 0.0\nsamples = 1\nvalue = [[4.0]\n[1.0]]", fillcolor="#e58139"] ;
252 -> 253 ;
254 [label="squared_error = 0.0\nsamples = 2\nvalue = [[4.0]\n[0.0]]", fillcolor="#e58139"] ;
252 -> 254 ;
255 [label="x[1] <= 0.5\nsquared_error = 0.066\nsamples = 6\nvalue = [[4.929]\n[0.071]]", fillcolor="#e5823a"] ;
251 -> 255 ;
256 [label="squared_error = 0.0\nsamples = 1\nvalue = [[5.0]\n[1.0]]", fillcolor="#e58139"] ;
255 -> 256 ;
257 [label="x[17] <= 6.5\nsquared_error = 0.036\nsamples = 5\nvalue = [[4.923]\n[0.0]]", fillcolor="#e5813a"] ;
255 -> 257 ;
258 [label="squared_error = 0.0\nsamples = 4\nvalue = [[5.0]\n[0.0]]", fillcolor="#e58139"] ;
257 -> 258 ;
259 [label="squared_error = 0.0\nsamples = 1\nvalue = [[4.0]\n[0.0]]", fillcolor="#e58139"] ;
257 -> 259 ;
260 [label="squared_error = 0.0\nsamples = 1\nvalue = [[3.0]\n[0.0]]", fillcolor="#e58139"] ;
240 -> 260 ;
261 [label="x[9] <= 3.5\nsquared_error = 0.426\nsamples = 14\nvalue = [[4.818]\n[1.455]]", fillcolor="#e68742"] ;
239 -> 261 ;
262 [label="x[0] <= 3.5\nsquared_error = 0.318\nsamples = 10\nvalue = [[4.812]\n[1.125]]", fillcolor="#e6853f"] ;
261 -> 262 ;
263 [label="x[5] <= 1.5\nsquared_error = 0.196\nsamples = 9\nvalue = [[4.933]\n[1.067]]", fillcolor="#e6843d"] ;
262 -> 263 ;
264 [label="x[8] <= 1.5\nsquared_error = 0.124\nsamples = 8\nvalue = [[4.923]\n[1.231]]", fillcolor="#e5833c"] ;
263 -> 264 ;
265 [label="x[3] <= 3.5\nsquared_error = 0.094\nsamples = 3\nvalue = [[5.0]\n[1.75]]", fillcolor="#e5823b"] ;
264 -> 265 ;
266 [label="squared_error = 0.0\nsamples = 1\nvalue = [[5.0]\n[1.0]]", fillcolor="#e58139"] ;
265 -> 266 ;
267 [label="squared_error = 0.0\nsamples = 2\nvalue = [[5.0]\n[2.0]]", fillcolor="#e58139"] ;
265 -> 267 ;
268 [label="x[7] <= 6.5\nsquared_error = 0.049\nsamples = 5\nvalue = [[4.889]\n[1.0]]", fillcolor="#e5823a"] ;
264 -> 268 ;
269 [label="squared_error = 0.0\nsamples = 4\nvalue = [[5.0]\n[1.0]]", fillcolor="#e58139"] ;
268 -> 269 ;
270 [label="squared_error = 0.0\nsamples = 1\nvalue = [[4.0]\n[1.0]]", fillcolor="#e58139"] ;
268 -> 270 ;
271 [label="squared_error = 0.0\nsamples = 1\nvalue = [[5.0]\n[0.0]]", fillcolor="#e58139"] ;
263 -> 271 ;
272 [label="squared_error = 0.0\nsamples = 1\nvalue = [[3.0]\n[2.0]]", fillcolor="#e58139"] ;
262 -> 272 ;
273 [label="x[3] <= 3.5\nsquared_error = 0.181\nsamples = 4\nvalue = [[4.833]\n[2.333]]", fillcolor="#e5833d"] ;
261 -> 273 ;
274 [label="x[0] <= 2.0\nsquared_error = 0.125\nsamples = 2\nvalue = [[4.5]\n[3.0]]", fillcolor="#e5833c"] ;
273 -> 274 ;
275 [label="squared_error = 0.0\nsamples = 1\nvalue = [[4.0]\n[3.0]]", fillcolor="#e58139"] ;
274 -> 275 ;
276 [label="squared_error = 0.0\nsamples = 1\nvalue = [[5.0]\n[3.0]]", fillcolor="#e58139"] ;
274 -> 276 ;
277 [label="squared_error = 0.0\nsamples = 2\nvalue = [[5.0]\n[2.0]]", fillcolor="#e58139"] ;
273 -> 277 ;
278 [label="x[2] <= 4.0\nsquared_error = 0.972\nsamples = 7\nvalue = [[4.833]\n[2.167]]", fillcolor="#e88e4d"] ;
238 -> 278 ;
279 [label="x[4] <= 7.0\nsquared_error = 0.2\nsamples = 5\nvalue = [[4.8]\n[1.6]]", fillcolor="#e6843d"] ;
278 -> 279 ;
280 [label="x[18] <= 1.5\nsquared_error = 0.094\nsamples = 4\nvalue = [[5.0]\n[1.75]]", fillcolor="#e5823b"] ;
279 -> 280 ;
281 [label="squared_error = 0.0\nsamples = 1\nvalue = [[5.0]\n[1.0]]", fillcolor="#e58139"] ;
280 -> 281 ;
282 [label="squared_error = 0.0\nsamples = 3\nvalue = [[5.0]\n[2.0]]", fillcolor="#e58139"] ;
280 -> 282 ;
283 [label="squared_error = 0.0\nsamples = 1\nvalue = [[4.0]\n[1.0]]", fillcolor="#e58139"] ;
279 -> 283 ;
284 [label="squared_error = 0.0\nsamples = 2\nvalue = [[5.0]\n[5.0]]", fillcolor="#e58139"] ;
278 -> 284 ;
285 [label="x[7] <= 2.5\nsquared_error = 1.294\nsamples = 52\nvalue = [[4.051]\n[1.62]]", fillcolor="#e89253"] ;
237 -> 285 ;
286 [label="x[3] <= 8.5\nsquared_error = 1.489\nsamples = 30\nvalue = [[3.804]\n[1.304]]", fillcolor="#e99457"] ;
285 -> 286 ;
287 [label="x[2] <= 3.5\nsquared_error = 1.21\nsamples = 29\nvalue = [[3.977]\n[1.318]]", fillcolor="#e89152"] ;
286 -> 287 ;
288 [label="x[3] <= 2.5\nsquared_error = 0.727\nsamples = 20\nvalue = [[4.29]\n[1.097]]", fillcolor="#e78a48"] ;
287 -> 288 ;
289 [label="x[20] <= 571.8\nsquared_error = 0.576\nsamples = 10\nvalue = [[3.583]\n[0.583]]", fillcolor="#e78845"] ;
288 -> 289 ;
290 [label="x[18] <= 2.5\nsquared_error = 0.24\nsamples = 5\nvalue = [[4.6]\n[0.6]]", fillcolor="#e6843e"] ;
289 -> 290 ;
291 [label="x[12] <= 7.5\nsquared_error = 0.111\nsamples = 3\nvalue = [[5.0]\n[0.667]]", fillcolor="#e5823b"] ;
290 -> 291 ;
292 [label="squared_error = 0.0\nsamples = 2\nvalue = [[5.0]\n[1.0]]", fillcolor="#e58139"] ;
291 -> 292 ;
293 [label="squared_error = 0.0\nsamples = 1\nvalue = [[5.0]\n[0.0]]", fillcolor="#e58139"] ;
291 -> 293 ;
294 [label="x[8] <= 1.5\nsquared_error = 0.125\nsamples = 2\nvalue = [[4.0]\n[0.5]]", fillcolor="#e5833c"] ;
290 -> 294 ;
295 [label="squared_error = 0.0\nsamples = 1\nvalue = [[4.0]\n[1.0]]", fillcolor="#e58139"] ;
294 -> 295 ;
296 [label="squared_error = 0.0\nsamples = 1\nvalue = [[4.0]\n[0.0]]", fillcolor="#e58139"] ;
294 -> 296 ;
297 [label="x[20] <= 582.0\nsquared_error = 0.184\nsamples = 5\nvalue = [[2.857]\n[0.571]]", fillcolor="#e5833d"] ;
289 -> 297 ;
298 [label="x[16] <= 1.0\nsquared_error = 0.08\nsamples = 3\nvalue = [[3.0]\n[0.8]]", fillcolor="#e5823b"] ;
297 -> 298 ;
299 [label="squared_error = 0.0\nsamples = 2\nvalue = [[3.0]\n[1.0]]", fillcolor="#e58139"] ;
298 -> 299 ;
300 [label="squared_error = 0.0\nsamples = 1\nvalue = [[3.0]\n[0.0]]", fillcolor="#e58139"] ;
298 -> 300 ;
301 [label="x[16] <= 0.5\nsquared_error = 0.125\nsamples = 2\nvalue = [[2.5]\n[0.0]]", fillcolor="#e5833c"] ;
297 -> 301 ;
302 [label="squared_error = 0.0\nsamples = 1\nvalue = [[3.0]\n[0.0]]", fillcolor="#e58139"] ;
301 -> 302 ;
303 [label="squared_error = 0.0\nsamples = 1\nvalue = [[2.0]\n[0.0]]", fillcolor="#e58139"] ;
301 -> 303 ;
304 [label="x[10] <= 2.5\nsquared_error = 0.429\nsamples = 10\nvalue = [[4.737]\n[1.421]]", fillcolor="#e68742"] ;
288 -> 304 ;
305 [label="x[16] <= 0.5\nsquared_error = 0.361\nsamples = 8\nvalue = [[4.615]\n[1.769]]", fillcolor="#e68640"] ;
304 -> 305 ;
306 [label="x[2] <= 2.5\nsquared_error = 0.375\nsamples = 3\nvalue = [[4.5]\n[1.0]]", fillcolor="#e68641"] ;
305 -> 306 ;
307 [label="squared_error = 0.0\nsamples = 2\nvalue = [[5.0]\n[1.0]]", fillcolor="#e58139"] ;
306 -> 307 ;
308 [label="squared_error = 0.0\nsamples = 1\nvalue = [[3.0]\n[1.0]]", fillcolor="#e58139"] ;
306 -> 308 ;
309 [label="x[8] <= 1.5\nsquared_error = 0.16\nsamples = 5\nvalue = [[4.667]\n[2.111]]", fillcolor="#e5833c"] ;
305 -> 309 ;
310 [label="squared_error = 0.0\nsamples = 1\nvalue = [[4.0]\n[2.0]]", fillcolor="#e58139"] ;
309 -> 310 ;
311 [label="x[16] <= 1.5\nsquared_error = 0.069\nsamples = 4\nvalue = [[5.0]\n[2.167]]", fillcolor="#e5823a"] ;
309 -> 311 ;
312 [label="squared_error = 0.0\nsamples = 1\nvalue = [[5.0]\n[3.0]]", fillcolor="#e58139"] ;
311 -> 312 ;
313 [label="squared_error = 0.0\nsamples = 3\nvalue = [[5.0]\n[2.0]]", fillcolor="#e58139"] ;
311 -> 313 ;
314 [label="x[5] <= 2.5\nsquared_error = 0.111\nsamples = 2\nvalue = [[5.0]\n[0.667]]", fillcolor="#e5823b"] ;
304 -> 314 ;
315 [label="squared_error = 0.0\nsamples = 1\nvalue = [[5.0]\n[1.0]]", fillcolor="#e58139"] ;
314 -> 315 ;
316 [label="squared_error = 0.0\nsamples = 1\nvalue = [[5.0]\n[0.0]]", fillcolor="#e58139"] ;
314 -> 316 ;
317 [label="x[18] <= 2.5\nsquared_error = 1.769\nsamples = 9\nvalue = [[3.231]\n[1.846]]", fillcolor="#ea985d"] ;
287 -> 317 ;
318 [label="x[9] <= 4.0\nsquared_error = 1.0\nsamples = 6\nvalue = [[3.333]\n[1.0]]", fillcolor="#e88e4d"] ;
317 -> 318 ;
319 [label="x[7] <= 0.5\nsquared_error = 0.361\nsamples = 4\nvalue = [[2.5]\n[0.833]]", fillcolor="#e68640"] ;
318 -> 319 ;
320 [label="squared_error = 0.0\nsamples = 1\nvalue = [[1.0]\n[0.0]]", fillcolor="#e58139"] ;
319 -> 320 ;
321 [label="x[8] <= 7.0\nsquared_error = 0.08\nsamples = 3\nvalue = [[2.8]\n[1.0]]", fillcolor="#e5823b"] ;
319 -> 321 ;
322 [label="squared_error = 0.0\nsamples = 2\nvalue = [[3.0]\n[1.0]]", fillcolor="#e58139"] ;
321 -> 322 ;
323 [label="squared_error = 0.0\nsamples = 1\nvalue = [[2.0]\n[1.0]]", fillcolor="#e58139"] ;
321 -> 323 ;
324 [label="x[0] <= 1.5\nsquared_error = 0.111\nsamples = 2\nvalue = [[5.0]\n[1.333]]", fillcolor="#e5823b"] ;
318 -> 324 ;
325 [label="squared_error = 0.0\nsamples = 1\nvalue = [[5.0]\n[1.0]]", fillcolor="#e58139"] ;
324 -> 325 ;
326 [label="squared_error = 0.0\nsamples = 1\nvalue = [[5.0]\n[2.0]]", fillcolor="#e58139"] ;
324 -> 326 ;
327 [label="x[6] <= 1.5\nsquared_error = 0.844\nsamples = 3\nvalue = [[3.0]\n[3.75]]", fillcolor="#e78c4a"] ;
317 -> 327 ;
328 [label="squared_error = 0.0\nsamples = 1\nvalue = [[4.0]\n[2.0]]", fillcolor="#e58139"] ;
327 -> 328 ;
329 [label="x[15] <= 3.0\nsquared_error = 0.222\nsamples = 2\nvalue = [[2.667]\n[4.333]]", fillcolor="#e6843e"] ;
327 -> 329 ;
330 [label="squared_error = 0.0\nsamples = 1\nvalue = [[2.0]\n[5.0]]", fillcolor="#e58139"] ;
329 -> 330 ;
331 [label="squared_error = 0.0\nsamples = 1\nvalue = [[3.0]\n[4.0]]", fillcolor="#e58139"] ;
329 -> 331 ;
332 [label="squared_error = 0.0\nsamples = 1\nvalue = [[0.0]\n[1.0]]", fillcolor="#e58139"] ;
286 -> 332 ;
333 [label="x[8] <= 1.5\nsquared_error = 0.754\nsamples = 22\nvalue = [[4.394]\n[2.061]]", fillcolor="#e78b48"] ;
285 -> 333 ;
334 [label="x[13] <= 1.5\nsquared_error = 0.595\nsamples = 14\nvalue = [[4.609]\n[1.783]]", fillcolor="#e78945"] ;
333 -> 334 ;
335 [label="x[17] <= 3.5\nsquared_error = 0.08\nsamples = 3\nvalue = [[5.0]\n[0.8]]", fillcolor="#e5823b"] ;
334 -> 335 ;
336 [label="squared_error = 0.0\nsamples = 2\nvalue = [[5.0]\n[1.0]]", fillcolor="#e58139"] ;
335 -> 336 ;
337 [label="squared_error = 0.0\nsamples = 1\nvalue = [[5.0]\n[0.0]]", fillcolor="#e58139"] ;
335 -> 337 ;
338 [label="x[5] <= 0.5\nsquared_error = 0.54\nsamples = 11\nvalue = [[4.5]\n[2.056]]", fillcolor="#e68844"] ;
334 -> 338 ;
339 [label="x[2] <= 5.5\nsquared_error = 0.361\nsamples = 3\nvalue = [[3.833]\n[1.5]]", fillcolor="#e68640"] ;
338 -> 339 ;
340 [label="x[16] <= 1.5\nsquared_error = 0.188\nsamples = 2\nvalue = [[4.25]\n[1.25]]", fillcolor="#e6833d"] ;
339 -> 340 ;
341 [label="squared_error = 0.0\nsamples = 1\nvalue = [[4.0]\n[1.0]]", fillcolor="#e58139"] ;
340 -> 341 ;
342 [label="squared_error = 0.0\nsamples = 1\nvalue = [[5.0]\n[2.0]]", fillcolor="#e58139"] ;
340 -> 342 ;
343 [label="squared_error = 0.0\nsamples = 1\nvalue = [[3.0]\n[2.0]]", fillcolor="#e58139"] ;
339 -> 343 ;
344 [label="x[20] <= 571.7\nsquared_error = 0.347\nsamples = 8\nvalue = [[4.833]\n[2.333]]", fillcolor="#e68640"] ;
338 -> 344 ;
345 [label="x[13] <= 5.0\nsquared_error = 0.061\nsamples = 4\nvalue = [[5.0]\n[1.857]]", fillcolor="#e5823a"] ;
344 -> 345 ;
346 [label="squared_error = 0.0\nsamples = 1\nvalue = [[5.0]\n[1.0]]", fillcolor="#e58139"] ;
345 -> 346 ;
347 [label="squared_error = 0.0\nsamples = 3\nvalue = [[5.0]\n[2.0]]", fillcolor="#e58139"] ;
345 -> 347 ;
348 [label="x[2] <= 2.5\nsquared_error = 0.32\nsamples = 4\nvalue = [[4.6]\n[3.0]]", fillcolor="#e68540"] ;
344 -> 348 ;
349 [label="x[1] <= 2.0\nsquared_error = 0.125\nsamples = 2\nvalue = [[4.0]\n[2.5]]", fillcolor="#e5833c"] ;
348 -> 349 ;
350 [label="squared_error = 0.0\nsamples = 1\nvalue = [[4.0]\n[3.0]]", fillcolor="#e58139"] ;
349 -> 350 ;
351 [label="squared_error = 0.0\nsamples = 1\nvalue = [[4.0]\n[2.0]]", fillcolor="#e58139"] ;
349 -> 351 ;
352 [label="x[11] <= 6.5\nsquared_error = 0.111\nsamples = 2\nvalue = [[5.0]\n[3.333]]", fillcolor="#e5823b"] ;
348 -> 352 ;
353 [label="squared_error = 0.0\nsamples = 1\nvalue = [[5.0]\n[3.0]]", fillcolor="#e58139"] ;
352 -> 353 ;
354 [label="squared_error = 0.0\nsamples = 1\nvalue = [[5.0]\n[4.0]]", fillcolor="#e58139"] ;
352 -> 354 ;
355 [label="x[12] <= 8.5\nsquared_error = 0.65\nsamples = 8\nvalue = [[3.9]\n[2.7]]", fillcolor="#e78946"] ;
333 -> 355 ;
356 [label="x[2] <= 5.5\nsquared_error = 0.51\nsamples = 6\nvalue = [[4.286]\n[2.429]]", fillcolor="#e68843"] ;
355 -> 356 ;
357 [label="x[4] <= 2.5\nsquared_error = 0.188\nsamples = 4\nvalue = [[4.25]\n[1.75]]", fillcolor="#e6833d"] ;
356 -> 357 ;
358 [label="squared_error = 0.0\nsamples = 1\nvalue = [[5.0]\n[1.0]]", fillcolor="#e58139"] ;
357 -> 358 ;
359 [label="squared_error = 0.0\nsamples = 3\nvalue = [[4.0]\n[2.0]]", fillcolor="#e58139"] ;
357 -> 359 ;
360 [label="x[11] <= 5.5\nsquared_error = 0.222\nsamples = 2\nvalue = [[4.333]\n[3.333]]", fillcolor="#e6843e"] ;
356 -> 360 ;
361 [label="squared_error = 0.0\nsamples = 1\nvalue = [[4.0]\n[3.0]]", fillcolor="#e58139"] ;
360 -> 361 ;
362 [label="squared_error = 0.0\nsamples = 1\nvalue = [[5.0]\n[4.0]]", fillcolor="#e58139"] ;
360 -> 362 ;
363 [label="x[16] <= 2.0\nsquared_error = 0.111\nsamples = 2\nvalue = [[3.0]\n[3.333]]", fillcolor="#e5823b"] ;
355 -> 363 ;
364 [label="squared_error = 0.0\nsamples = 1\nvalue = [[3.0]\n[3.0]]", fillcolor="#e58139"] ;
363 -> 364 ;
365 [label="squared_error = 0.0\nsamples = 1\nvalue = [[3.0]\n[4.0]]", fillcolor="#e58139"] ;
363 -> 365 ;
366 [label="x[8] <= 1.5\nsquared_error = 2.507\nsamples = 1435\nvalue = [[3.392]\n[2.08]]", fillcolor="#eca26c"] ;
2 -> 366 ;
367 [label="x[20] <= 615.55\nsquared_error = 2.311\nsamples = 730\nvalue = [[3.366]\n[1.736]]", fillcolor="#eb9f68"] ;
366 -> 367 ;
368 [label="x[13] <= 3.5\nsquared_error = 1.956\nsamples = 445\nvalue = [[3.479]\n[1.459]]", fillcolor="#ea9a61"] ;
367 -> 368 ;
369 [label="x[11] <= 7.5\nsquared_error = 1.758\nsamples = 246\nvalue = [[3.169]\n[1.335]]", fillcolor="#ea985d"] ;
368 -> 369 ;
370 [label="x[4] <= 4.5\nsquared_error = 1.546\nsamples = 176\nvalue = [[3.329]\n[1.465]]", fillcolor="#e99558"] ;
369 -> 370 ;
371 [label="x[17] <= 4.5\nsquared_error = 1.521\nsamples = 105\nvalue = [[3.029]\n[1.482]]", fillcolor="#e99558"] ;
370 -> 371 ;
372 [label="x[10] <= 4.5\nsquared_error = 1.382\nsamples = 55\nvalue = [[3.17]\n[1.84]]", fillcolor="#e99355"] ;
371 -> 372 ;
373 [label="x[15] <= 3.5\nsquared_error = 1.243\nsamples = 49\nvalue = [[3.325]\n[1.783]]", fillcolor="#e89152"] ;
372 -> 373 ;
374 [label="x[2] <= 6.5\nsquared_error = 0.946\nsamples = 31\nvalue = [[3.491]\n[1.434]]", fillcolor="#e88d4c"] ;
373 -> 374 ;
375 [label="x[10] <= 2.5\nsquared_error = 0.873\nsamples = 29\nvalue = [[3.447]\n[1.234]]", fillcolor="#e78c4b"] ;
374 -> 375 ;
376 [label="x[2] <= 1.5\nsquared_error = 0.8\nsamples = 27\nvalue = [[3.262]\n[1.214]]", fillcolor="#e78b49"] ;
375 -> 376 ;
377 [label="x[20] <= 604.1\nsquared_error = 0.778\nsamples = 5\nvalue = [[4.0]\n[1.667]]", fillcolor="#e78b49"] ;
376 -> 377 ;
378 [label="x[10] <= 0.5\nsquared_error = 0.211\nsamples = 4\nvalue = [[4.375]\n[1.75]]", fillcolor="#e6843d"] ;
377 -> 378 ;
379 [label="squared_error = 0.0\nsamples = 1\nvalue = [[5.0]\n[2.0]]", fillcolor="#e58139"] ;
378 -> 379 ;
380 [label="x[13] <= 1.5\nsquared_error = 0.12\nsamples = 3\nvalue = [[4.0]\n[1.6]]", fillcolor="#e5833b"] ;
378 -> 380 ;
381 [label="squared_error = 0.0\nsamples = 2\nvalue = [[4.0]\n[1.0]]", fillcolor="#e58139"] ;
380 -> 381 ;
382 [label="squared_error = 0.0\nsamples = 1\nvalue = [[4.0]\n[2.0]]", fillcolor="#e58139"] ;
380 -> 382 ;
383 [label="squared_error = 0.0\nsamples = 1\nvalue = [[1.0]\n[1.0]]", fillcolor="#e58139"] ;
377 -> 383 ;
384 [label="x[4] <= 3.5\nsquared_error = 0.676\nsamples = 22\nvalue = [[3.061]\n[1.091]]", fillcolor="#e78a47"] ;
376 -> 384 ;
385 [label="x[16] <= 2.5\nsquared_error = 0.619\nsamples = 19\nvalue = [[3.036]\n[1.286]]", fillcolor="#e78946"] ;
384 -> 385 ;
386 [label="x[15] <= 0.5\nsquared_error = 0.483\nsamples = 16\nvalue = [[3.167]\n[1.083]]", fillcolor="#e68743"] ;
385 -> 386 ;
387 [label="x[7] <= 3.5\nsquared_error = 0.222\nsamples = 3\nvalue = [[1.667]\n[1.333]]", fillcolor="#e6843e"] ;
386 -> 387 ;
388 [label="squared_error = 0.0\nsamples = 1\nvalue = [[1.0]\n[2.0]]", fillcolor="#e58139"] ;
387 -> 388 ;
389 [label="squared_error = 0.0\nsamples = 2\nvalue = [[2.0]\n[1.0]]", fillcolor="#e58139"] ;
387 -> 389 ;
390 [label="x[5] <= 0.5\nsquared_error = 0.331\nsamples = 13\nvalue = [[3.381]\n[1.048]]", fillcolor="#e68540"] ;
386 -> 390 ;
391 [label="x[6] <= 1.5\nsquared_error = 0.273\nsamples = 5\nvalue = [[3.875]\n[0.75]]", fillcolor="#e6853f"] ;
390 -> 391 ;
392 [label="x[12] <= 1.5\nsquared_error = 0.181\nsamples = 4\nvalue = [[4.167]\n[0.667]]", fillcolor="#e5833d"] ;
391 -> 392 ;
393 [label="x[4] <= 2.5\nsquared_error = 0.094\nsamples = 3\nvalue = [[4.25]\n[1.0]]", fillcolor="#e5823b"] ;
392 -> 393 ;
394 [label="squared_error = 0.0\nsamples = 2\nvalue = [[4.0]\n[1.0]]", fillcolor="#e58139"] ;
393 -> 394 ;
395 [label="squared_error = 0.0\nsamples = 1\nvalue = [[5.0]\n[1.0]]", fillcolor="#e58139"] ;
393 -> 395 ;
396 [label="squared_error = 0.0\nsamples = 1\nvalue = [[4.0]\n[0.0]]", fillcolor="#e58139"] ;
392 -> 396 ;
397 [label="squared_error = 0.0\nsamples = 1\nvalue = [[3.0]\n[1.0]]", fillcolor="#e58139"] ;
391 -> 397 ;
398 [label="x[16] <= 1.5\nsquared_error = 0.201\nsamples = 8\nvalue = [[3.077]\n[1.231]]", fillcolor="#e6843d"] ;
390 -> 398 ;
399 [label="x[17] <= 0.5\nsquared_error = 0.083\nsamples = 7\nvalue = [[2.909]\n[1.091]]", fillcolor="#e5823b"] ;
398 -> 399 ;
400 [label="squared_error = 0.0\nsamples = 1\nvalue = [[2.0]\n[1.0]]", fillcolor="#e58139"] ;
399 -> 400 ;
401 [label="x[0] <= 4.0\nsquared_error = 0.045\nsamples = 6\nvalue = [[3.0]\n[1.1]]", fillcolor="#e5823a"] ;
399 -> 401 ;
402 [label="squared_error = 0.0\nsamples = 5\nvalue = [[3.0]\n[1.0]]", fillcolor="#e58139"] ;
401 -> 402 ;
403 [label="squared_error = 0.0\nsamples = 1\nvalue = [[3.0]\n[2.0]]", fillcolor="#e58139"] ;
401 -> 403 ;
404 [label="squared_error = 0.0\nsamples = 1\nvalue = [[4.0]\n[2.0]]", fillcolor="#e58139"] ;
398 -> 404 ;
405 [label="x[1] <= 1.5\nsquared_error = 0.219\nsamples = 3\nvalue = [[2.25]\n[2.5]]", fillcolor="#e6843d"] ;
385 -> 405 ;
406 [label="x[0] <= 2.0\nsquared_error = 0.125\nsamples = 2\nvalue = [[2.5]\n[2.0]]", fillcolor="#e5833c"] ;
405 -> 406 ;
407 [label="squared_error = 0.0\nsamples = 1\nvalue = [[2.0]\n[2.0]]", fillcolor="#e58139"] ;
406 -> 407 ;
408 [label="squared_error = 0.0\nsamples = 1\nvalue = [[3.0]\n[2.0]]", fillcolor="#e58139"] ;
406 -> 408 ;
409 [label="squared_error = 0.0\nsamples = 1\nvalue = [[2.0]\n[3.0]]", fillcolor="#e58139"] ;
405 -> 409 ;
410 [label="x[7] <= 3.5\nsquared_error = 0.28\nsamples = 3\nvalue = [[3.2]\n[0.0]]", fillcolor="#e6853f"] ;
384 -> 410 ;
411 [label="squared_error = 0.0\nsamples = 1\nvalue = [[4.0]\n[0.0]]", fillcolor="#e58139"] ;
410 -> 411 ;
412 [label="x[9] <= 3.5\nsquared_error = 0.111\nsamples = 2\nvalue = [[2.667]\n[0.0]]", fillcolor="#e5823b"] ;
410 -> 412 ;
413 [label="squared_error = 0.0\nsamples = 1\nvalue = [[2.0]\n[0.0]]", fillcolor="#e58139"] ;
412 -> 413 ;
414 [label="squared_error = 0.0\nsamples = 1\nvalue = [[3.0]\n[0.0]]", fillcolor="#e58139"] ;
412 -> 414 ;
415 [label="x[9] <= 4.5\nsquared_error = 0.12\nsamples = 2\nvalue = [[5.0]\n[1.4]]", fillcolor="#e5833b"] ;
375 -> 415 ;
416 [label="squared_error = 0.0\nsamples = 1\nvalue = [[5.0]\n[2.0]]", fillcolor="#e58139"] ;
415 -> 416 ;
417 [label="squared_error = 0.0\nsamples = 1\nvalue = [[5.0]\n[1.0]]", fillcolor="#e58139"] ;
415 -> 417 ;
418 [label="x[2] <= 8.5\nsquared_error = 0.069\nsamples = 2\nvalue = [[3.833]\n[3.0]]", fillcolor="#e5823a"] ;
374 -> 418 ;
419 [label="squared_error = 0.0\nsamples = 1\nvalue = [[4.0]\n[3.0]]", fillcolor="#e58139"] ;
418 -> 419 ;
420 [label="squared_error = 0.0\nsamples = 1\nvalue = [[3.0]\n[3.0]]", fillcolor="#e58139"] ;
418 -> 420 ;
421 [label="x[7] <= 3.5\nsquared_error = 1.403\nsamples = 18\nvalue = [[3.033]\n[2.4]]", fillcolor="#e99356"] ;
373 -> 421 ;
422 [label="x[0] <= 2.5\nsquared_error = 1.044\nsamples = 11\nvalue = [[2.474]\n[2.947]]", fillcolor="#e88f4e"] ;
421 -> 422 ;
423 [label="x[15] <= 6.5\nsquared_error = 1.036\nsamples = 8\nvalue = [[3.0]\n[2.923]]", fillcolor="#e88e4e"] ;
422 -> 423 ;
424 [label="x[5] <= 4.0\nsquared_error = 0.649\nsamples = 7\nvalue = [[3.083]\n[2.667]]", fillcolor="#e78946"] ;
423 -> 424 ;
425 [label="x[3] <= 0.5\nsquared_error = 0.38\nsamples = 5\nvalue = [[3.2]\n[3.0]]", fillcolor="#e68641"] ;
424 -> 425 ;
426 [label="squared_error = 0.0\nsamples = 1\nvalue = [[3.0]\n[5.0]]", fillcolor="#e58139"] ;
425 -> 426 ;
427 [label="x[6] <= 1.5\nsquared_error = 0.173\nsamples = 4\nvalue = [[3.222]\n[2.778]]", fillcolor="#e5833d"] ;
425 -> 427 ;
428 [label="x[10] <= 2.5\nsquared_error = 0.102\nsamples = 3\nvalue = [[3.286]\n[3.0]]", fillcolor="#e5823b"] ;
427 -> 428 ;
429 [label="squared_error = 0.0\nsamples = 2\nvalue = [[3.0]\n[3.0]]", fillcolor="#e58139"] ;
428 -> 429 ;
430 [label="squared_error = 0.0\nsamples = 1\nvalue = [[4.0]\n[3.0]]", fillcolor="#e58139"] ;
428 -> 430 ;
431 [label="squared_error = 0.0\nsamples = 1\nvalue = [[3.0]\n[2.0]]", fillcolor="#e58139"] ;
427 -> 431 ;
432 [label="x[17] <= 2.5\nsquared_error = 0.125\nsamples = 2\nvalue = [[2.5]\n[1.0]]", fillcolor="#e5833c"] ;
424 -> 432 ;
433 [label="squared_error = 0.0\nsamples = 1\nvalue = [[3.0]\n[1.0]]", fillcolor="#e58139"] ;
432 -> 433 ;
434 [label="squared_error = 0.0\nsamples = 1\nvalue = [[2.0]\n[1.0]]", fillcolor="#e58139"] ;
432 -> 434 ;
435 [label="squared_error = 0.0\nsamples = 1\nvalue = [[2.0]\n[6.0]]", fillcolor="#e58139"] ;
423 -> 435 ;
436 [label="x[17] <= 0.5\nsquared_error = 0.111\nsamples = 3\nvalue = [[1.333]\n[3.0]]", fillcolor="#e5823b"] ;
422 -> 436 ;
437 [label="squared_error = 0.0\nsamples = 1\nvalue = [[2.0]\n[3.0]]", fillcolor="#e58139"] ;
436 -> 437 ;
438 [label="squared_error = 0.0\nsamples = 2\nvalue = [[1.0]\n[3.0]]", fillcolor="#e58139"] ;
436 -> 438 ;
439 [label="x[20] <= 596.8\nsquared_error = 0.579\nsamples = 7\nvalue = [[4.0]\n[1.455]]", fillcolor="#e78945"] ;
421 -> 439 ;
440 [label="x[12] <= 5.0\nsquared_error = 0.111\nsamples = 2\nvalue = [[3.0]\n[0.667]]", fillcolor="#e5823b"] ;
439 -> 440 ;
441 [label="squared_error = 0.0\nsamples = 1\nvalue = [[3.0]\n[1.0]]", fillcolor="#e58139"] ;
440 -> 441 ;
442 [label="squared_error = 0.0\nsamples = 1\nvalue = [[3.0]\n[0.0]]", fillcolor="#e58139"] ;
440 -> 442 ;
443 [label="x[20] <= 607.2\nsquared_error = 0.336\nsamples = 5\nvalue = [[4.375]\n[1.75]]", fillcolor="#e68540"] ;
439 -> 443 ;
444 [label="x[15] <= 6.5\nsquared_error = 0.111\nsamples = 2\nvalue = [[4.667]\n[1.0]]", fillcolor="#e5823b"] ;
443 -> 444 ;
445 [label="squared_error = 0.0\nsamples = 1\nvalue = [[4.0]\n[1.0]]", fillcolor="#e58139"] ;
444 -> 445 ;
446 [label="squared_error = 0.0\nsamples = 1\nvalue = [[5.0]\n[1.0]]", fillcolor="#e58139"] ;
444 -> 446 ;
447 [label="x[12] <= 3.0\nsquared_error = 0.16\nsamples = 3\nvalue = [[4.2]\n[2.2]]", fillcolor="#e5833c"] ;
443 -> 447 ;
448 [label="squared_error = 0.0\nsamples = 2\nvalue = [[4.0]\n[2.0]]", fillcolor="#e58139"] ;
447 -> 448 ;
449 [label="squared_error = 0.0\nsamples = 1\nvalue = [[5.0]\n[3.0]]", fillcolor="#e58139"] ;
447 -> 449 ;
450 [label="x[3] <= 4.5\nsquared_error = 1.554\nsamples = 6\nvalue = [[2.0]\n[2.273]]", fillcolor="#e99559"] ;
372 -> 450 ;
451 [label="x[8] <= 0.5\nsquared_error = 1.109\nsamples = 5\nvalue = [[2.375]\n[1.625]]", fillcolor="#e88f50"] ;
450 -> 451 ;
452 [label="x[0] <= 1.5\nsquared_error = 0.444\nsamples = 2\nvalue = [[1.0]\n[0.667]]", fillcolor="#e68742"] ;
451 -> 452 ;
453 [label="squared_error = 0.0\nsamples = 1\nvalue = [[1.0]\n[2.0]]", fillcolor="#e58139"] ;
452 -> 453 ;
454 [label="squared_error = 0.0\nsamples = 1\nvalue = [[1.0]\n[0.0]]", fillcolor="#e58139"] ;
452 -> 454 ;
455 [label="x[9] <= 4.0\nsquared_error = 0.16\nsamples = 3\nvalue = [[3.2]\n[2.2]]", fillcolor="#e5833c"] ;
451 -> 455 ;
456 [label="squared_error = 0.0\nsamples = 2\nvalue = [[3.0]\n[2.0]]", fillcolor="#e58139"] ;
455 -> 456 ;
457 [label="squared_error = 0.0\nsamples = 1\nvalue = [[4.0]\n[3.0]]", fillcolor="#e58139"] ;
455 -> 457 ;
458 [label="squared_error = 0.0\nsamples = 1\nvalue = [[1.0]\n[4.0]]", fillcolor="#e58139"] ;
450 -> 458 ;
459 [label="x[16] <= 1.5\nsquared_error = 1.489\nsamples = 50\nvalue = [[2.855]\n[1.039]]", fillcolor="#e99457"] ;
371 -> 459 ;
460 [label="x[12] <= 9.0\nsquared_error = 1.307\nsamples = 33\nvalue = [[3.255]\n[0.851]]", fillcolor="#e89254"] ;
459 -> 460 ;
461 [label="x[0] <= 3.5\nsquared_error = 1.254\nsamples = 26\nvalue = [[2.889]\n[0.917]]", fillcolor="#e89153"] ;
460 -> 461 ;
462 [label="x[15] <= 1.5\nsquared_error = 1.121\nsamples = 19\nvalue = [[2.462]\n[1.077]]", fillcolor="#e89050"] ;
461 -> 462 ;
463 [label="x[2] <= 3.0\nsquared_error = 0.997\nsamples = 7\nvalue = [[2.167]\n[1.75]]", fillcolor="#e88e4d"] ;
462 -> 463 ;
464 [label="x[13] <= 1.5\nsquared_error = 0.531\nsamples = 4\nvalue = [[1.429]\n[1.429]]", fillcolor="#e68844"] ;
463 -> 464 ;
465 [label="x[13] <= 0.5\nsquared_error = 0.625\nsamples = 2\nvalue = [[2.5]\n[1.0]]", fillcolor="#e78946"] ;
464 -> 465 ;
466 [label="squared_error = 0.0\nsamples = 1\nvalue = [[3.0]\n[2.0]]", fillcolor="#e58139"] ;
465 -> 466 ;
467 [label="squared_error = 0.0\nsamples = 1\nvalue = [[2.0]\n[0.0]]", fillcolor="#e58139"] ;
465 -> 467 ;
468 [label="x[7] <= 0.5\nsquared_error = 0.12\nsamples = 2\nvalue = [[1.0]\n[1.6]]", fillcolor="#e5833b"] ;
464 -> 468 ;
469 [label="squared_error = 0.0\nsamples = 1\nvalue = [[1.0]\n[1.0]]", fillcolor="#e58139"] ;
468 -> 469 ;
470 [label="squared_error = 0.0\nsamples = 1\nvalue = [[1.0]\n[2.0]]", fillcolor="#e58139"] ;
468 -> 470 ;
471 [label="x[9] <= 5.0\nsquared_error = 0.56\nsamples = 3\nvalue = [[3.2]\n[2.2]]", fillcolor="#e68844"] ;
463 -> 471 ;
472 [label="x[7] <= 4.0\nsquared_error = 0.094\nsamples = 2\nvalue = [[3.0]\n[1.75]]", fillcolor="#e5823b"] ;
471 -> 472 ;
473 [label="squared_error = 0.0\nsamples = 1\nvalue = [[3.0]\n[1.0]]", fillcolor="#e58139"] ;
472 -> 473 ;
474 [label="squared_error = 0.0\nsamples = 1\nvalue = [[3.0]\n[2.0]]", fillcolor="#e58139"] ;
472 -> 474 ;
475 [label="squared_error = 0.0\nsamples = 1\nvalue = [[4.0]\n[4.0]]", fillcolor="#e58139"] ;
471 -> 475 ;
476 [label="x[4] <= 1.5\nsquared_error = 0.798\nsamples = 12\nvalue = [[2.714]\n[0.5]]", fillcolor="#e78b49"] ;
462 -> 476 ;
477 [label="x[3] <= 2.5\nsquared_error = 0.111\nsamples = 2\nvalue = [[1.667]\n[0.0]]", fillcolor="#e5823b"] ;
476 -> 477 ;
478 [label="squared_error = 0.0\nsamples = 1\nvalue = [[1.0]\n[0.0]]", fillcolor="#e58139"] ;
477 -> 478 ;
479 [label="squared_error = 0.0\nsamples = 1\nvalue = [[2.0]\n[0.0]]", fillcolor="#e58139"] ;
477 -> 479 ;
480 [label="x[5] <= 0.5\nsquared_error = 0.752\nsamples = 10\nvalue = [[3.0]\n[0.636]]", fillcolor="#e78b48"] ;
476 -> 480 ;
481 [label="x[20] <= 600.35\nsquared_error = 0.594\nsamples = 4\nvalue = [[4.0]\n[0.75]]", fillcolor="#e78945"] ;
480 -> 481 ;
482 [label="x[1] <= 4.5\nsquared_error = 0.5\nsamples = 2\nvalue = [[4.0]\n[0.0]]", fillcolor="#e68743"] ;
481 -> 482 ;
483 [label="squared_error = 0.0\nsamples = 1\nvalue = [[5.0]\n[0.0]]", fillcolor="#e58139"] ;
482 -> 483 ;
484 [label="squared_error = 0.0\nsamples = 1\nvalue = [[3.0]\n[0.0]]", fillcolor="#e58139"] ;
482 -> 484 ;
485 [label="x[6] <= 1.5\nsquared_error = 0.125\nsamples = 2\nvalue = [[4.0]\n[1.5]]", fillcolor="#e5833c"] ;
481 -> 485 ;
486 [label="squared_error = 0.0\nsamples = 1\nvalue = [[4.0]\n[2.0]]", fillcolor="#e58139"] ;
485 -> 486 ;
487 [label="squared_error = 0.0\nsamples = 1\nvalue = [[4.0]\n[1.0]]", fillcolor="#e58139"] ;
485 -> 487 ;
488 [label="x[14] <= 1.5\nsquared_error = 0.388\nsamples = 6\nvalue = [[2.429]\n[0.571]]", fillcolor="#e68641"] ;
480 -> 488 ;
489 [label="x[2] <= 5.5\nsquared_error = 0.094\nsamples = 4\nvalue = [[3.0]\n[0.75]]", fillcolor="#e5823b"] ;
488 -> 489 ;
490 [label="squared_error = 0.0\nsamples = 3\nvalue = [[3.0]\n[1.0]]", fillcolor="#e58139"] ;
489 -> 490 ;
491 [label="squared_error = 0.0\nsamples = 1\nvalue = [[3.0]\n[0.0]]", fillcolor="#e58139"] ;
489 -> 491 ;
492 [label="x[7] <= 2.5\nsquared_error = 0.222\nsamples = 2\nvalue = [[1.667]\n[0.333]]", fillcolor="#e6843e"] ;
488 -> 492 ;
493 [label="squared_error = 0.0\nsamples = 1\nvalue = [[1.0]\n[1.0]]", fillcolor="#e58139"] ;
492 -> 493 ;
494 [label="squared_error = 0.0\nsamples = 1\nvalue = [[2.0]\n[0.0]]", fillcolor="#e58139"] ;
492 -> 494 ;
495 [label="x[19] <= 0.5\nsquared_error = 0.625\nsamples = 7\nvalue = [[4.0]\n[0.5]]", fillcolor="#e78946"] ;
461 -> 495 ;
496 [label="x[11] <= 6.5\nsquared_error = 0.389\nsamples = 4\nvalue = [[3.333]\n[0.333]]", fillcolor="#e68641"] ;
495 -> 496 ;
497 [label="squared_error = 0.0\nsamples = 1\nvalue = [[3.0]\n[2.0]]", fillcolor="#e58139"] ;
496 -> 497 ;
498 [label="x[9] <= 3.5\nsquared_error = 0.12\nsamples = 3\nvalue = [[3.4]\n[0.0]]", fillcolor="#e5833b"] ;
496 -> 498 ;
499 [label="squared_error = 0.0\nsamples = 1\nvalue = [[4.0]\n[0.0]]", fillcolor="#e58139"] ;
498 -> 499 ;
500 [label="squared_error = 0.0\nsamples = 2\nvalue = [[3.0]\n[0.0]]", fillcolor="#e58139"] ;
498 -> 500 ;
501 [label="x[13] <= 2.5\nsquared_error = 0.094\nsamples = 3\nvalue = [[5.0]\n[0.75]]", fillcolor="#e5823b"] ;
495 -> 501 ;
502 [label="squared_error = 0.0\nsamples = 2\nvalue = [[5.0]\n[1.0]]", fillcolor="#e58139"] ;
501 -> 502 ;
503 [label="squared_error = 0.0\nsamples = 1\nvalue = [[5.0]\n[0.0]]", fillcolor="#e58139"] ;
501 -> 503 ;
504 [label="x[2] <= 2.5\nsquared_error = 0.512\nsamples = 7\nvalue = [[4.455]\n[0.636]]", fillcolor="#e68843"] ;
460 -> 504 ;
505 [label="squared_error = 0.0\nsamples = 1\nvalue = [[5.0]\n[2.0]]", fillcolor="#e58139"] ;
504 -> 505 ;
506 [label="x[17] <= 6.0\nsquared_error = 0.333\nsamples = 6\nvalue = [[4.333]\n[0.333]]", fillcolor="#e68540"] ;
504 -> 506 ;
507 [label="squared_error = 0.0\nsamples = 2\nvalue = [[5.0]\n[0.0]]", fillcolor="#e58139"] ;
506 -> 507 ;
508 [label="x[14] <= 1.5\nsquared_error = 0.2\nsamples = 4\nvalue = [[3.8]\n[0.6]]", fillcolor="#e6843d"] ;
506 -> 508 ;
509 [label="squared_error = 0.0\nsamples = 2\nvalue = [[4.0]\n[1.0]]", fillcolor="#e58139"] ;
508 -> 509 ;
510 [label="x[6] <= 1.5\nsquared_error = 0.125\nsamples = 2\nvalue = [[3.5]\n[0.0]]", fillcolor="#e5833c"] ;
508 -> 510 ;
511 [label="squared_error = 0.0\nsamples = 1\nvalue = [[4.0]\n[0.0]]", fillcolor="#e58139"] ;
510 -> 511 ;
512 [label="squared_error = 0.0\nsamples = 1\nvalue = [[3.0]\n[0.0]]", fillcolor="#e58139"] ;
510 -> 512 ;
513 [label="x[7] <= 0.5\nsquared_error = 1.367\nsamples = 17\nvalue = [[2.207]\n[1.345]]", fillcolor="#e99355"] ;
459 -> 513 ;
514 [label="squared_error = 0.0\nsamples = 3\nvalue = [[3.0]\n[0.0]]", fillcolor="#e58139"] ;
513 -> 514 ;
515 [label="x[10] <= 0.5\nsquared_error = 1.291\nsamples = 14\nvalue = [[1.955]\n[1.773]]", fillcolor="#e89253"] ;
513 -> 515 ;
516 [label="x[3] <= 3.5\nsquared_error = 0.78\nsamples = 6\nvalue = [[2.0]\n[0.8]]", fillcolor="#e78b49"] ;
515 -> 516 ;
517 [label="x[0] <= 2.0\nsquared_error = 0.422\nsamples = 4\nvalue = [[1.875]\n[0.375]]", fillcolor="#e68642"] ;
516 -> 517 ;
518 [label="x[17] <= 8.5\nsquared_error = 0.24\nsamples = 3\nvalue = [[2.4]\n[0.6]]", fillcolor="#e6843e"] ;
517 -> 518 ;
519 [label="squared_error = 0.0\nsamples = 2\nvalue = [[2.0]\n[1.0]]", fillcolor="#e58139"] ;
518 -> 519 ;
520 [label="squared_error = 0.0\nsamples = 1\nvalue = [[3.0]\n[0.0]]", fillcolor="#e58139"] ;
518 -> 520 ;
521 [label="squared_error = 0.0\nsamples = 1\nvalue = [[1.0]\n[0.0]]", fillcolor="#e58139"] ;
517 -> 521 ;
522 [label="x[1] <= 2.5\nsquared_error = 0.25\nsamples = 2\nvalue = [[2.5]\n[2.5]]", fillcolor="#e6843e"] ;
516 -> 522 ;
523 [label="squared_error = 0.0\nsamples = 1\nvalue = [[2.0]\n[2.0]]", fillcolor="#e58139"] ;
522 -> 523 ;
524 [label="squared_error = 0.0\nsamples = 1\nvalue = [[3.0]\n[3.0]]", fillcolor="#e58139"] ;
522 -> 524 ;
525 [label="x[0] <= 2.5\nsquared_error = 0.993\nsamples = 8\nvalue = [[1.917]\n[2.583]]", fillcolor="#e88e4d"] ;
515 -> 525 ;
526 [label="x[15] <= 6.5\nsquared_error = 0.545\nsamples = 6\nvalue = [[1.9]\n[3.0]]", fillcolor="#e68844"] ;
525 -> 526 ;
527 [label="x[7] <= 3.5\nsquared_error = 0.284\nsamples = 5\nvalue = [[1.778]\n[2.778]]", fillcolor="#e6853f"] ;
526 -> 527 ;
528 [label="x[19] <= 0.5\nsquared_error = 0.111\nsamples = 2\nvalue = [[1.0]\n[2.333]]", fillcolor="#e5823b"] ;
527 -> 528 ;
529 [label="squared_error = 0.0\nsamples = 1\nvalue = [[1.0]\n[2.0]]", fillcolor="#e58139"] ;
528 -> 529 ;
530 [label="squared_error = 0.0\nsamples = 1\nvalue = [[1.0]\n[3.0]]", fillcolor="#e58139"] ;
528 -> 530 ;
531 [label="x[10] <= 1.5\nsquared_error = 0.069\nsamples = 3\nvalue = [[2.167]\n[3.0]]", fillcolor="#e5823a"] ;
527 -> 531 ;
532 [label="squared_error = 0.0\nsamples = 1\nvalue = [[3.0]\n[3.0]]", fillcolor="#e58139"] ;
531 -> 532 ;
533 [label="squared_error = 0.0\nsamples = 2\nvalue = [[2.0]\n[3.0]]", fillcolor="#e58139"] ;
531 -> 533 ;
534 [label="squared_error = 0.0\nsamples = 1\nvalue = [[3.0]\n[5.0]]", fillcolor="#e58139"] ;
526 -> 534 ;
535 [label="x[3] <= 2.5\nsquared_error = 0.625\nsamples = 2\nvalue = [[2.0]\n[0.5]]", fillcolor="#e78946"] ;
525 -> 535 ;
536 [label="squared_error = 0.0\nsamples = 1\nvalue = [[3.0]\n[0.0]]", fillcolor="#e58139"] ;
535 -> 536 ;
537 [label="squared_error = 0.0\nsamples = 1\nvalue = [[1.0]\n[1.0]]", fillcolor="#e58139"] ;
535 -> 537 ;
538 [label="x[20] <= 602.1\nsquared_error = 1.419\nsamples = 71\nvalue = [[3.767]\n[1.44]]", fillcolor="#e99356"] ;
370 -> 538 ;
539 [label="x[20] <= 588.25\nsquared_error = 0.89\nsamples = 30\nvalue = [[4.163]\n[1.102]]", fillcolor="#e78d4b"] ;
538 -> 539 ;
540 [label="x[2] <= 3.0\nsquared_error = 0.847\nsamples = 4\nvalue = [[3.167]\n[2.333]]", fillcolor="#e78c4a"] ;
539 -> 540 ;
541 [label="x[12] <= 7.0\nsquared_error = 0.5\nsamples = 2\nvalue = [[3.0]\n[3.0]]", fillcolor="#e68743"] ;
540 -> 541 ;
542 [label="squared_error = 0.0\nsamples = 1\nvalue = [[2.0]\n[3.0]]", fillcolor="#e58139"] ;
541 -> 542 ;
543 [label="squared_error = 0.0\nsamples = 1\nvalue = [[4.0]\n[3.0]]", fillcolor="#e58139"] ;
541 -> 543 ;
544 [label="x[4] <= 7.0\nsquared_error = 0.125\nsamples = 2\nvalue = [[3.5]\n[1.0]]", fillcolor="#e5833c"] ;
540 -> 544 ;
545 [label="squared_error = 0.0\nsamples = 1\nvalue = [[4.0]\n[1.0]]", fillcolor="#e58139"] ;
544 -> 545 ;
546 [label="squared_error = 0.0\nsamples = 1\nvalue = [[3.0]\n[1.0]]", fillcolor="#e58139"] ;
544 -> 546 ;
547 [label="x[5] <= 2.5\nsquared_error = 0.696\nsamples = 26\nvalue = [[4.302]\n[0.93]]", fillcolor="#e78a47"] ;
539 -> 547 ;
548 [label="x[18] <= 2.5\nsquared_error = 0.671\nsamples = 18\nvalue = [[4.172]\n[1.207]]", fillcolor="#e78a47"] ;
547 -> 548 ;
549 [label="x[2] <= 4.5\nsquared_error = 0.303\nsamples = 10\nvalue = [[4.562]\n[0.875]]", fillcolor="#e6853f"] ;
548 -> 549 ;
550 [label="x[12] <= 8.5\nsquared_error = 0.163\nsamples = 7\nvalue = [[4.75]\n[1.167]]", fillcolor="#e5833c"] ;
549 -> 550 ;
551 [label="x[17] <= 1.5\nsquared_error = 0.086\nsamples = 6\nvalue = [[5.0]\n[1.222]]", fillcolor="#e5823b"] ;
550 -> 551 ;
552 [label="squared_error = 0.0\nsamples = 1\nvalue = [[5.0]\n[2.0]]", fillcolor="#e58139"] ;
551 -> 552 ;
553 [label="squared_error = 0.0\nsamples = 5\nvalue = [[5.0]\n[1.0]]", fillcolor="#e58139"] ;
551 -> 553 ;
554 [label="squared_error = 0.0\nsamples = 1\nvalue = [[4.0]\n[1.0]]", fillcolor="#e58139"] ;
550 -> 554 ;
555 [label="squared_error = 0.0\nsamples = 3\nvalue = [[4.0]\n[0.0]]", fillcolor="#e58139"] ;
549 -> 555 ;
556 [label="x[5] <= 1.5\nsquared_error = 0.763\nsamples = 8\nvalue = [[3.692]\n[1.615]]", fillcolor="#e78b49"] ;
548 -> 556 ;
557 [label="x[4] <= 7.5\nsquared_error = 0.413\nsamples = 7\nvalue = [[3.917]\n[1.5]]", fillcolor="#e68641"] ;
556 -> 557 ;
558 [label="x[10] <= 3.0\nsquared_error = 0.12\nsamples = 3\nvalue = [[4.4]\n[2.0]]", fillcolor="#e5833b"] ;
557 -> 558 ;
559 [label="squared_error = 0.0\nsamples = 2\nvalue = [[5.0]\n[2.0]]", fillcolor="#e58139"] ;
558 -> 559 ;
560 [label="squared_error = 0.0\nsamples = 1\nvalue = [[4.0]\n[2.0]]", fillcolor="#e58139"] ;
558 -> 560 ;
561 [label="x[10] <= 3.5\nsquared_error = 0.327\nsamples = 4\nvalue = [[3.571]\n[1.143]]", fillcolor="#e68540"] ;
557 -> 561 ;
562 [label="x[12] <= 5.0\nsquared_error = 0.25\nsamples = 2\nvalue = [[2.5]\n[1.5]]", fillcolor="#e6843e"] ;
561 -> 562 ;
563 [label="squared_error = 0.0\nsamples = 1\nvalue = [[2.0]\n[1.0]]", fillcolor="#e58139"] ;
562 -> 563 ;
564 [label="squared_error = 0.0\nsamples = 1\nvalue = [[3.0]\n[2.0]]", fillcolor="#e58139"] ;
562 -> 564 ;
565 [label="squared_error = 0.0\nsamples = 2\nvalue = [[4.0]\n[1.0]]", fillcolor="#e58139"] ;
561 -> 565 ;
566 [label="squared_error = 0.0\nsamples = 1\nvalue = [[1.0]\n[3.0]]", fillcolor="#e58139"] ;
556 -> 566 ;
567 [label="x[0] <= 1.5\nsquared_error = 0.452\nsamples = 8\nvalue = [[4.571]\n[0.357]]", fillcolor="#e68742"] ;
547 -> 567 ;
568 [label="x[15] <= 5.0\nsquared_error = 0.375\nsamples = 3\nvalue = [[3.5]\n[1.0]]", fillcolor="#e68641"] ;
567 -> 568 ;
569 [label="squared_error = 0.0\nsamples = 2\nvalue = [[3.0]\n[1.0]]", fillcolor="#e58139"] ;
568 -> 569 ;
570 [label="squared_error = 0.0\nsamples = 1\nvalue = [[5.0]\n[1.0]]", fillcolor="#e58139"] ;
568 -> 570 ;
571 [label="x[9] <= 1.5\nsquared_error = 0.045\nsamples = 5\nvalue = [[5.0]\n[0.1]]", fillcolor="#e5823a"] ;
567 -> 571 ;
572 [label="squared_error = 0.0\nsamples = 1\nvalue = [[5.0]\n[1.0]]", fillcolor="#e58139"] ;
571 -> 572 ;
573 [label="squared_error = 0.0\nsamples = 4\nvalue = [[5.0]\n[0.0]]", fillcolor="#e58139"] ;
571 -> 573 ;
574 [label="x[20] <= 603.5\nsquared_error = 1.635\nsamples = 41\nvalue = [[3.478]\n[1.687]]", fillcolor="#e9965a"] ;
538 -> 574 ;
575 [label="x[4] <= 7.5\nsquared_error = 0.222\nsamples = 2\nvalue = [[1.333]\n[2.667]]", fillcolor="#e6843e"] ;
574 -> 575 ;
576 [label="squared_error = 0.0\nsamples = 1\nvalue = [[2.0]\n[2.0]]", fillcolor="#e58139"] ;
575 -> 576 ;
577 [label="squared_error = 0.0\nsamples = 1\nvalue = [[1.0]\n[3.0]]", fillcolor="#e58139"] ;
575 -> 577 ;
578 [label="x[17] <= 6.5\nsquared_error = 1.474\nsamples = 39\nvalue = [[3.689]\n[1.59]]", fillcolor="#e99457"] ;
574 -> 578 ;
579 [label="x[15] <= 2.5\nsquared_error = 1.295\nsamples = 33\nvalue = [[3.836]\n[1.727]]", fillcolor="#e89253"] ;
578 -> 579 ;
580 [label="x[10] <= 3.5\nsquared_error = 0.738\nsamples = 10\nvalue = [[4.2]\n[0.867]]", fillcolor="#e78b48"] ;
579 -> 580 ;
581 [label="x[16] <= 0.5\nsquared_error = 0.391\nsamples = 9\nvalue = [[4.077]\n[0.538]]", fillcolor="#e68641"] ;
580 -> 581 ;
582 [label="x[7] <= 5.5\nsquared_error = 0.163\nsamples = 5\nvalue = [[3.714]\n[0.143]]", fillcolor="#e5833c"] ;
581 -> 582 ;
583 [label="squared_error = 0.0\nsamples = 3\nvalue = [[4.0]\n[0.0]]", fillcolor="#e58139"] ;
582 -> 583 ;
584 [label="x[17] <= 4.0\nsquared_error = 0.125\nsamples = 2\nvalue = [[3.0]\n[0.5]]", fillcolor="#e5833c"] ;
582 -> 584 ;
585 [label="squared_error = 0.0\nsamples = 1\nvalue = [[3.0]\n[1.0]]", fillcolor="#e58139"] ;
584 -> 585 ;
586 [label="squared_error = 0.0\nsamples = 1\nvalue = [[3.0]\n[0.0]]", fillcolor="#e58139"] ;
584 -> 586 ;
587 [label="x[4] <= 8.5\nsquared_error = 0.292\nsamples = 4\nvalue = [[4.5]\n[1.0]]", fillcolor="#e6853f"] ;
581 -> 587 ;
588 [label="x[19] <= 0.5\nsquared_error = 0.111\nsamples = 2\nvalue = [[4.0]\n[0.667]]", fillcolor="#e5823b"] ;
587 -> 588 ;
589 [label="squared_error = 0.0\nsamples = 1\nvalue = [[4.0]\n[1.0]]", fillcolor="#e58139"] ;
588 -> 589 ;
590 [label="squared_error = 0.0\nsamples = 1\nvalue = [[4.0]\n[0.0]]", fillcolor="#e58139"] ;
588 -> 590 ;
591 [label="x[6] <= 1.5\nsquared_error = 0.111\nsamples = 2\nvalue = [[5.0]\n[1.333]]", fillcolor="#e5823b"] ;
587 -> 591 ;
592 [label="squared_error = 0.0\nsamples = 1\nvalue = [[5.0]\n[2.0]]", fillcolor="#e58139"] ;
591 -> 592 ;
593 [label="squared_error = 0.0\nsamples = 1\nvalue = [[5.0]\n[1.0]]", fillcolor="#e58139"] ;
591 -> 593 ;
594 [label="squared_error = 0.0\nsamples = 1\nvalue = [[5.0]\n[3.0]]", fillcolor="#e58139"] ;
580 -> 594 ;
595 [label="x[7] <= 0.5\nsquared_error = 1.279\nsamples = 23\nvalue = [[3.7]\n[2.05]]", fillcolor="#e89253"] ;
579 -> 595 ;
596 [label="x[1] <= 0.5\nsquared_error = 2.014\nsamples = 5\nvalue = [[2.333]\n[1.167]]", fillcolor="#ea9b62"] ;
595 -> 596 ;
597 [label="squared_error = 0.0\nsamples = 1\nvalue = [[1.0]\n[4.0]]", fillcolor="#e58139"] ;
596 -> 597 ;
598 [label="x[10] <= 3.0\nsquared_error = 1.24\nsamples = 4\nvalue = [[2.6]\n[0.6]]", fillcolor="#e89152"] ;
596 -> 598 ;
599 [label="x[10] <= 1.0\nsquared_error = 0.444\nsamples = 2\nvalue = [[3.667]\n[1.0]]", fillcolor="#e68742"] ;
598 -> 599 ;
600 [label="squared_error = 0.0\nsamples = 1\nvalue = [[3.0]\n[1.0]]", fillcolor="#e58139"] ;
599 -> 600 ;
601 [label="squared_error = 0.0\nsamples = 1\nvalue = [[5.0]\n[1.0]]", fillcolor="#e58139"] ;
599 -> 601 ;
602 [label="squared_error = 0.0\nsamples = 2\nvalue = [[1.0]\n[0.0]]", fillcolor="#e58139"] ;
598 -> 602 ;
603 [label="x[9] <= 3.5\nsquared_error = 0.874\nsamples = 18\nvalue = [[3.941]\n[2.206]]", fillcolor="#e78c4b"] ;
595 -> 603 ;
604 [label="x[18] <= 3.5\nsquared_error = 0.446\nsamples = 10\nvalue = [[3.818]\n[1.727]]", fillcolor="#e68742"] ;
603 -> 604 ;
605 [label="x[20] <= 603.9\nsquared_error = 0.311\nsamples = 9\nvalue = [[3.905]\n[1.81]]", fillcolor="#e6853f"] ;
604 -> 605 ;
606 [label="squared_error = 0.0\nsamples = 1\nvalue = [[3.0]\n[0.0]]", fillcolor="#e58139"] ;
605 -> 606 ;
607 [label="x[3] <= 1.5\nsquared_error = 0.219\nsamples = 8\nvalue = [[3.95]\n[1.9]]", fillcolor="#e6843d"] ;
605 -> 607 ;
608 [label="squared_error = 0.0\nsamples = 1\nvalue = [[3.0]\n[2.0]]", fillcolor="#e58139"] ;
607 -> 608 ;
609 [label="x[20] <= 614.55\nsquared_error = 0.163\nsamples = 7\nvalue = [[4.118]\n[1.882]]", fillcolor="#e5833c"] ;
607 -> 609 ;
610 [label="x[17] <= 2.0\nsquared_error = 0.105\nsamples = 6\nvalue = [[4.062]\n[1.812]]", fillcolor="#e5823b"] ;
609 -> 610 ;
611 [label="squared_error = 0.0\nsamples = 1\nvalue = [[5.0]\n[1.0]]", fillcolor="#e58139"] ;
610 -> 611 ;
612 [label="x[3] <= 2.5\nsquared_error = 0.058\nsamples = 5\nvalue = [[4.0]\n[1.867]]", fillcolor="#e5823a"] ;
610 -> 612 ;
613 [label="squared_error = 0.0\nsamples = 1\nvalue = [[4.0]\n[1.0]]", fillcolor="#e58139"] ;
612 -> 613 ;
614 [label="squared_error = 0.0\nsamples = 4\nvalue = [[4.0]\n[2.0]]", fillcolor="#e58139"] ;
612 -> 614 ;
615 [label="squared_error = 0.0\nsamples = 1\nvalue = [[5.0]\n[3.0]]", fillcolor="#e58139"] ;
609 -> 615 ;
616 [label="squared_error = 0.0\nsamples = 1\nvalue = [[2.0]\n[0.0]]", fillcolor="#e58139"] ;
604 -> 616 ;
617 [label="x[20] <= 607.8\nsquared_error = 1.024\nsamples = 8\nvalue = [[4.167]\n[3.083]]", fillcolor="#e88e4e"] ;
603 -> 617 ;
618 [label="x[17] <= 3.5\nsquared_error = 0.111\nsamples = 2\nvalue = [[5.0]\n[4.667]]", fillcolor="#e5823b"] ;
617 -> 618 ;
619 [label="squared_error = 0.0\nsamples = 1\nvalue = [[5.0]\n[5.0]]", fillcolor="#e58139"] ;
618 -> 619 ;
620 [label="squared_error = 0.0\nsamples = 1\nvalue = [[5.0]\n[4.0]]", fillcolor="#e58139"] ;
618 -> 620 ;
621 [label="x[12] <= 7.5\nsquared_error = 0.617\nsamples = 6\nvalue = [[3.889]\n[2.556]]", fillcolor="#e78946"] ;
617 -> 621 ;
622 [label="x[7] <= 2.0\nsquared_error = 0.181\nsamples = 4\nvalue = [[3.667]\n[3.167]]", fillcolor="#e5833d"] ;
621 -> 622 ;
623 [label="squared_error = 0.0\nsamples = 2\nvalue = [[4.0]\n[3.0]]", fillcolor="#e58139"] ;
622 -> 623 ;
624 [label="x[11] <= 5.5\nsquared_error = 0.125\nsamples = 2\nvalue = [[3.0]\n[3.5]]", fillcolor="#e5833c"] ;
622 -> 624 ;
625 [label="squared_error = 0.0\nsamples = 1\nvalue = [[3.0]\n[4.0]]", fillcolor="#e58139"] ;
624 -> 625 ;
626 [label="squared_error = 0.0\nsamples = 1\nvalue = [[3.0]\n[3.0]]", fillcolor="#e58139"] ;
624 -> 626 ;
627 [label="x[17] <= 1.0\nsquared_error = 0.222\nsamples = 2\nvalue = [[4.333]\n[1.333]]", fillcolor="#e6843e"] ;
621 -> 627 ;
628 [label="squared_error = 0.0\nsamples = 1\nvalue = [[5.0]\n[2.0]]", fillcolor="#e58139"] ;
627 -> 628 ;
629 [label="squared_error = 0.0\nsamples = 1\nvalue = [[4.0]\n[1.0]]", fillcolor="#e58139"] ;
627 -> 629 ;
630 [label="x[4] <= 6.5\nsquared_error = 1.222\nsamples = 6\nvalue = [[2.333]\n[0.333]]", fillcolor="#e89152"] ;
578 -> 630 ;
631 [label="x[0] <= 3.5\nsquared_error = 0.5\nsamples = 4\nvalue = [[1.5]\n[0.5]]", fillcolor="#e68743"] ;
630 -> 631 ;
632 [label="x[4] <= 5.5\nsquared_error = 0.111\nsamples = 3\nvalue = [[1.667]\n[0.0]]", fillcolor="#e5823b"] ;
631 -> 632 ;
633 [label="squared_error = 0.0\nsamples = 1\nvalue = [[1.0]\n[0.0]]", fillcolor="#e58139"] ;
632 -> 633 ;
634 [label="squared_error = 0.0\nsamples = 2\nvalue = [[2.0]\n[0.0]]", fillcolor="#e58139"] ;
632 -> 634 ;
635 [label="squared_error = 0.0\nsamples = 1\nvalue = [[1.0]\n[2.0]]", fillcolor="#e58139"] ;
631 -> 635 ;
636 [label="x[9] <= 7.5\nsquared_error = 0.5\nsamples = 2\nvalue = [[4.0]\n[0.0]]", fillcolor="#e68743"] ;
630 -> 636 ;
637 [label="squared_error = 0.0\nsamples = 1\nvalue = [[5.0]\n[0.0]]", fillcolor="#e58139"] ;
636 -> 637 ;
638 [label="squared_error = 0.0\nsamples = 1\nvalue = [[3.0]\n[0.0]]", fillcolor="#e58139"] ;
636 -> 638 ;
639 [label="x[12] <= 3.5\nsquared_error = 2.11\nsamples = 70\nvalue = [[2.757]\n[1.0]]", fillcolor="#eb9c64"] ;
369 -> 639 ;
640 [label="x[0] <= 0.5\nsquared_error = 2.098\nsamples = 37\nvalue = [[2.164]\n[0.803]]", fillcolor="#eb9c64"] ;
639 -> 640 ;
641 [label="x[6] <= 1.5\nsquared_error = 9.719\nsamples = 3\nvalue = [[3.75]\n[3.5]]", fillcolor="#ffffff"] ;
640 -> 641 ;
642 [label="x[10] <= 5.0\nsquared_error = 0.444\nsamples = 2\nvalue = [[5.0]\n[1.333]]", fillcolor="#e68742"] ;
641 -> 642 ;
643 [label="squared_error = 0.0\nsamples = 1\nvalue = [[5.0]\n[2.0]]", fillcolor="#e58139"] ;
642 -> 643 ;
644 [label="squared_error = 0.0\nsamples = 1\nvalue = [[5.0]\n[0.0]]", fillcolor="#e58139"] ;
642 -> 644 ;
645 [label="squared_error = 0.0\nsamples = 1\nvalue = [[0.0]\n[10.0]]", fillcolor="#e58139"] ;
641 -> 645 ;
646 [label="x[10] <= 3.5\nsquared_error = 1.196\nsamples = 34\nvalue = [[2.053]\n[0.614]]", fillcolor="#e89151"] ;
640 -> 646 ;
647 [label="x[4] <= 3.5\nsquared_error = 1.034\nsamples = 33\nvalue = [[2.0]\n[0.554]]", fillcolor="#e88e4e"] ;
646 -> 647 ;
648 [label="x[9] <= 2.5\nsquared_error = 0.917\nsamples = 22\nvalue = [[2.378]\n[0.541]]", fillcolor="#e78d4c"] ;
647 -> 648 ;
649 [label="x[4] <= 2.5\nsquared_error = 0.914\nsamples = 13\nvalue = [[2.045]\n[0.818]]", fillcolor="#e78d4c"] ;
648 -> 649 ;
650 [label="x[3] <= 2.5\nsquared_error = 0.901\nsamples = 7\nvalue = [[1.909]\n[0.091]]", fillcolor="#e78d4b"] ;
649 -> 650 ;
651 [label="x[4] <= 1.5\nsquared_error = 0.069\nsamples = 3\nvalue = [[0.833]\n[0.0]]", fillcolor="#e5823a"] ;
650 -> 651 ;
652 [label="squared_error = 0.0\nsamples = 2\nvalue = [[1.0]\n[0.0]]", fillcolor="#e58139"] ;
651 -> 652 ;
653 [label="squared_error = 0.0\nsamples = 1\nvalue = [[0.0]\n[0.0]]", fillcolor="#e58139"] ;
651 -> 653 ;
654 [label="x[15] <= 2.5\nsquared_error = 0.36\nsamples = 4\nvalue = [[3.2]\n[0.2]]", fillcolor="#e68640"] ;
650 -> 654 ;
655 [label="x[20] <= 602.3\nsquared_error = 0.125\nsamples = 2\nvalue = [[4.0]\n[0.5]]", fillcolor="#e5833c"] ;
654 -> 655 ;
656 [label="squared_error = 0.0\nsamples = 1\nvalue = [[4.0]\n[0.0]]", fillcolor="#e58139"] ;
655 -> 656 ;
657 [label="squared_error = 0.0\nsamples = 1\nvalue = [[4.0]\n[1.0]]", fillcolor="#e58139"] ;
655 -> 657 ;
658 [label="x[5] <= 2.5\nsquared_error = 0.111\nsamples = 2\nvalue = [[2.667]\n[0.0]]", fillcolor="#e5823b"] ;
654 -> 658 ;
659 [label="squared_error = 0.0\nsamples = 1\nvalue = [[2.0]\n[0.0]]", fillcolor="#e58139"] ;
658 -> 659 ;
660 [label="squared_error = 0.0\nsamples = 1\nvalue = [[3.0]\n[0.0]]", fillcolor="#e58139"] ;
658 -> 660 ;
661 [label="x[12] <= 1.0\nsquared_error = 0.38\nsamples = 6\nvalue = [[2.182]\n[1.545]]", fillcolor="#e68641"] ;
649 -> 661 ;
662 [label="x[15] <= 3.5\nsquared_error = 0.224\nsamples = 4\nvalue = [[1.714]\n[1.429]]", fillcolor="#e6843e"] ;
661 -> 662 ;
663 [label="x[1] <= 0.5\nsquared_error = 0.111\nsamples = 2\nvalue = [[1.333]\n[2.0]]", fillcolor="#e5823b"] ;
662 -> 663 ;
664 [label="squared_error = 0.0\nsamples = 1\nvalue = [[2.0]\n[2.0]]", fillcolor="#e58139"] ;
663 -> 664 ;
665 [label="squared_error = 0.0\nsamples = 1\nvalue = [[1.0]\n[2.0]]", fillcolor="#e58139"] ;
663 -> 665 ;
666 [label="squared_error = 0.0\nsamples = 2\nvalue = [[2.0]\n[1.0]]", fillcolor="#e58139"] ;
662 -> 666 ;
667 [label="x[3] <= 1.0\nsquared_error = 0.094\nsamples = 2\nvalue = [[3.0]\n[1.75]]", fillcolor="#e5823b"] ;
661 -> 667 ;
668 [label="squared_error = 0.0\nsamples = 1\nvalue = [[3.0]\n[2.0]]", fillcolor="#e58139"] ;
667 -> 668 ;
669 [label="squared_error = 0.0\nsamples = 1\nvalue = [[3.0]\n[1.0]]", fillcolor="#e58139"] ;
667 -> 669 ;
670 [label="x[2] <= 1.5\nsquared_error = 0.582\nsamples = 9\nvalue = [[2.867]\n[0.133]]", fillcolor="#e78945"] ;
648 -> 670 ;
671 [label="squared_error = 0.0\nsamples = 2\nvalue = [[1.0]\n[1.0]]", fillcolor="#e58139"] ;
670 -> 671 ;
672 [label="x[20] <= 601.75\nsquared_error = 0.296\nsamples = 7\nvalue = [[3.154]\n[0.0]]", fillcolor="#e6853f"] ;
670 -> 672 ;
673 [label="x[5] <= 0.5\nsquared_error = 0.125\nsamples = 2\nvalue = [[4.5]\n[0.0]]", fillcolor="#e5833c"] ;
672 -> 673 ;
674 [label="squared_error = 0.0\nsamples = 1\nvalue = [[5.0]\n[0.0]]", fillcolor="#e58139"] ;
673 -> 674 ;
675 [label="squared_error = 0.0\nsamples = 1\nvalue = [[4.0]\n[0.0]]", fillcolor="#e58139"] ;
673 -> 675 ;
676 [label="x[18] <= 3.5\nsquared_error = 0.132\nsamples = 5\nvalue = [[2.909]\n[0.0]]", fillcolor="#e5833c"] ;
672 -> 676 ;
677 [label="x[17] <= 7.5\nsquared_error = 0.049\nsamples = 4\nvalue = [[3.111]\n[0.0]]", fillcolor="#e5823a"] ;
676 -> 677 ;
678 [label="squared_error = 0.0\nsamples = 3\nvalue = [[3.0]\n[0.0]]", fillcolor="#e58139"] ;
677 -> 678 ;
679 [label="squared_error = 0.0\nsamples = 1\nvalue = [[4.0]\n[0.0]]", fillcolor="#e58139"] ;
677 -> 679 ;
680 [label="squared_error = 0.0\nsamples = 1\nvalue = [[2.0]\n[0.0]]", fillcolor="#e58139"] ;
676 -> 680 ;
681 [label="x[3] <= 2.5\nsquared_error = 0.85\nsamples = 11\nvalue = [[1.263]\n[0.579]]", fillcolor="#e78c4a"] ;
647 -> 681 ;
682 [label="x[1] <= 0.5\nsquared_error = 0.204\nsamples = 7\nvalue = [[1.143]\n[0.0]]", fillcolor="#e6843d"] ;
681 -> 682 ;
683 [label="squared_error = 0.0\nsamples = 2\nvalue = [[0.0]\n[0.0]]", fillcolor="#e58139"] ;
682 -> 683 ;
684 [label="x[6] <= 1.5\nsquared_error = 0.111\nsamples = 5\nvalue = [[1.333]\n[0.0]]", fillcolor="#e5823b"] ;
682 -> 684 ;
685 [label="squared_error = 0.0\nsamples = 3\nvalue = [[1.0]\n[0.0]]", fillcolor="#e58139"] ;
684 -> 685 ;
686 [label="squared_error = 0.0\nsamples = 2\nvalue = [[2.0]\n[0.0]]", fillcolor="#e58139"] ;
684 -> 686 ;
687 [label="x[4] <= 9.5\nsquared_error = 0.8\nsamples = 4\nvalue = [[1.6]\n[2.2]]", fillcolor="#e78b49"] ;
681 -> 687 ;
688 [label="x[20] <= 604.95\nsquared_error = 0.219\nsamples = 3\nvalue = [[1.5]\n[2.75]]", fillcolor="#e6843d"] ;
687 -> 688 ;
689 [label="x[20] <= 599.3\nsquared_error = 0.125\nsamples = 2\nvalue = [[2.0]\n[2.5]]", fillcolor="#e5833c"] ;
688 -> 689 ;
690 [label="squared_error = 0.0\nsamples = 1\nvalue = [[2.0]\n[2.0]]", fillcolor="#e58139"] ;
689 -> 690 ;
691 [label="squared_error = 0.0\nsamples = 1\nvalue = [[2.0]\n[3.0]]", fillcolor="#e58139"] ;
689 -> 691 ;
692 [label="squared_error = 0.0\nsamples = 1\nvalue = [[1.0]\n[3.0]]", fillcolor="#e58139"] ;
688 -> 692 ;
693 [label="squared_error = 0.0\nsamples = 1\nvalue = [[2.0]\n[0.0]]", fillcolor="#e58139"] ;
687 -> 693 ;
694 [label="squared_error = 0.0\nsamples = 1\nvalue = [[5.0]\n[4.0]]", fillcolor="#e58139"] ;
646 -> 694 ;
695 [label="x[20] <= 609.4\nsquared_error = 1.596\nsamples = 33\nvalue = [[3.48]\n[1.24]]", fillcolor="#e9965a"] ;
639 -> 695 ;
696 [label="x[4] <= 4.5\nsquared_error = 1.405\nsamples = 23\nvalue = [[3.371]\n[0.771]]", fillcolor="#e99356"] ;
695 -> 696 ;
697 [label="x[5] <= 2.5\nsquared_error = 1.298\nsamples = 17\nvalue = [[3.778]\n[0.852]]", fillcolor="#e89253"] ;
696 -> 697 ;
698 [label="x[17] <= 3.5\nsquared_error = 1.28\nsamples = 13\nvalue = [[3.316]\n[1.158]]", fillcolor="#e89253"] ;
697 -> 698 ;
699 [label="x[12] <= 9.5\nsquared_error = 0.625\nsamples = 4\nvalue = [[1.5]\n[1.0]]", fillcolor="#e78946"] ;
698 -> 699 ;
700 [label="x[2] <= 2.5\nsquared_error = 0.125\nsamples = 2\nvalue = [[1.5]\n[2.0]]", fillcolor="#e5833c"] ;
699 -> 700 ;
701 [label="squared_error = 0.0\nsamples = 1\nvalue = [[2.0]\n[2.0]]", fillcolor="#e58139"] ;
700 -> 701 ;
702 [label="squared_error = 0.0\nsamples = 1\nvalue = [[1.0]\n[2.0]]", fillcolor="#e58139"] ;
700 -> 702 ;
703 [label="x[6] <= 1.5\nsquared_error = 0.125\nsamples = 2\nvalue = [[1.5]\n[0.0]]", fillcolor="#e5833c"] ;
699 -> 703 ;
704 [label="squared_error = 0.0\nsamples = 1\nvalue = [[2.0]\n[0.0]]", fillcolor="#e58139"] ;
703 -> 704 ;
705 [label="squared_error = 0.0\nsamples = 1\nvalue = [[1.0]\n[0.0]]", fillcolor="#e58139"] ;
703 -> 705 ;
706 [label="x[1] <= 1.5\nsquared_error = 0.893\nsamples = 9\nvalue = [[3.8]\n[1.2]]", fillcolor="#e78d4b"] ;
698 -> 706 ;
707 [label="squared_error = 0.0\nsamples = 2\nvalue = [[4.0]\n[3.0]]", fillcolor="#e58139"] ;
706 -> 707 ;
708 [label="x[9] <= 1.5\nsquared_error = 0.604\nsamples = 7\nvalue = [[3.75]\n[0.75]]", fillcolor="#e78945"] ;
706 -> 708 ;
709 [label="x[15] <= 4.5\nsquared_error = 0.32\nsamples = 3\nvalue = [[3.4]\n[0.0]]", fillcolor="#e68540"] ;
708 -> 709 ;
710 [label="x[16] <= 0.5\nsquared_error = 0.125\nsamples = 2\nvalue = [[2.5]\n[0.0]]", fillcolor="#e5833c"] ;
709 -> 710 ;
711 [label="squared_error = 0.0\nsamples = 1\nvalue = [[3.0]\n[0.0]]", fillcolor="#e58139"] ;
710 -> 711 ;
712 [label="squared_error = 0.0\nsamples = 1\nvalue = [[2.0]\n[0.0]]", fillcolor="#e58139"] ;
710 -> 712 ;
713 [label="squared_error = 0.0\nsamples = 1\nvalue = [[4.0]\n[0.0]]", fillcolor="#e58139"] ;
709 -> 713 ;
714 [label="x[8] <= 0.5\nsquared_error = 0.388\nsamples = 4\nvalue = [[4.0]\n[1.286]]", fillcolor="#e68641"] ;
708 -> 714 ;
715 [label="squared_error = 0.0\nsamples = 1\nvalue = [[4.0]\n[3.0]]", fillcolor="#e58139"] ;
714 -> 715 ;
716 [label="x[13] <= 0.5\nsquared_error = 0.167\nsamples = 3\nvalue = [[4.0]\n[1.0]]", fillcolor="#e5833c"] ;
714 -> 716 ;
717 [label="squared_error = 0.0\nsamples = 1\nvalue = [[5.0]\n[1.0]]", fillcolor="#e58139"] ;
716 -> 717 ;
718 [label="x[6] <= 1.5\nsquared_error = 0.08\nsamples = 2\nvalue = [[3.8]\n[1.0]]", fillcolor="#e5823b"] ;
716 -> 718 ;
719 [label="squared_error = 0.0\nsamples = 1\nvalue = [[4.0]\n[1.0]]", fillcolor="#e58139"] ;
718 -> 719 ;
720 [label="squared_error = 0.0\nsamples = 1\nvalue = [[3.0]\n[1.0]]", fillcolor="#e58139"] ;
718 -> 720 ;
721 [label="x[13] <= 1.5\nsquared_error = 0.109\nsamples = 4\nvalue = [[4.875]\n[0.125]]", fillcolor="#e5823b"] ;
697 -> 721 ;
722 [label="squared_error = 0.0\nsamples = 3\nvalue = [[5.0]\n[0.0]]", fillcolor="#e58139"] ;
721 -> 722 ;
723 [label="squared_error = 0.0\nsamples = 1\nvalue = [[4.0]\n[1.0]]", fillcolor="#e58139"] ;
721 -> 723 ;
724 [label="x[18] <= 1.5\nsquared_error = 0.5\nsamples = 6\nvalue = [[2.0]\n[0.5]]", fillcolor="#e68743"] ;
696 -> 724 ;
725 [label="squared_error = 0.0\nsamples = 1\nvalue = [[4.0]\n[0.0]]", fillcolor="#e58139"] ;
724 -> 725 ;
726 [label="x[13] <= 1.5\nsquared_error = 0.224\nsamples = 5\nvalue = [[1.714]\n[0.571]]", fillcolor="#e6843e"] ;
724 -> 726 ;
727 [label="x[10] <= 0.5\nsquared_error = 0.094\nsamples = 3\nvalue = [[1.75]\n[1.0]]", fillcolor="#e5823b"] ;
726 -> 727 ;
728 [label="squared_error = 0.0\nsamples = 2\nvalue = [[2.0]\n[1.0]]", fillcolor="#e58139"] ;
727 -> 728 ;
729 [label="squared_error = 0.0\nsamples = 1\nvalue = [[1.0]\n[1.0]]", fillcolor="#e58139"] ;
727 -> 729 ;
730 [label="x[0] <= 1.5\nsquared_error = 0.111\nsamples = 2\nvalue = [[1.667]\n[0.0]]", fillcolor="#e5823b"] ;
726 -> 730 ;
731 [label="squared_error = 0.0\nsamples = 1\nvalue = [[2.0]\n[0.0]]", fillcolor="#e58139"] ;
730 -> 731 ;
732 [label="squared_error = 0.0\nsamples = 1\nvalue = [[1.0]\n[0.0]]", fillcolor="#e58139"] ;
730 -> 732 ;
733 [label="x[9] <= 2.5\nsquared_error = 1.142\nsamples = 10\nvalue = [[3.733]\n[2.333]]", fillcolor="#e89050"] ;
695 -> 733 ;
734 [label="x[10] <= 2.5\nsquared_error = 0.5\nsamples = 3\nvalue = [[2.5]\n[3.5]]", fillcolor="#e68743"] ;
733 -> 734 ;
735 [label="x[20] <= 610.7\nsquared_error = 0.111\nsamples = 2\nvalue = [[2.667]\n[4.0]]", fillcolor="#e5823b"] ;
734 -> 735 ;
736 [label="squared_error = 0.0\nsamples = 1\nvalue = [[2.0]\n[4.0]]", fillcolor="#e58139"] ;
735 -> 736 ;
737 [label="squared_error = 0.0\nsamples = 1\nvalue = [[3.0]\n[4.0]]", fillcolor="#e58139"] ;
735 -> 737 ;
738 [label="squared_error = 0.0\nsamples = 1\nvalue = [[2.0]\n[2.0]]", fillcolor="#e58139"] ;
734 -> 738 ;
739 [label="x[10] <= 2.0\nsquared_error = 0.661\nsamples = 7\nvalue = [[4.182]\n[1.909]]", fillcolor="#e78a46"] ;
733 -> 739 ;
740 [label="x[7] <= 6.5\nsquared_error = 0.42\nsamples = 5\nvalue = [[4.0]\n[2.222]]", fillcolor="#e68642"] ;
739 -> 740 ;
741 [label="x[15] <= 3.5\nsquared_error = 0.188\nsamples = 4\nvalue = [[4.25]\n[2.25]]", fillcolor="#e6833d"] ;
740 -> 741 ;
742 [label="squared_error = 0.0\nsamples = 3\nvalue = [[4.0]\n[2.0]]", fillcolor="#e58139"] ;
741 -> 742 ;
743 [label="squared_error = 0.0\nsamples = 1\nvalue = [[5.0]\n[3.0]]", fillcolor="#e58139"] ;
741 -> 743 ;
744 [label="squared_error = 0.0\nsamples = 1\nvalue = [[2.0]\n[2.0]]", fillcolor="#e58139"] ;
740 -> 744 ;
745 [label="x[7] <= 3.5\nsquared_error = 0.125\nsamples = 2\nvalue = [[5.0]\n[0.5]]", fillcolor="#e5833c"] ;
739 -> 745 ;
746 [label="squared_error = 0.0\nsamples = 1\nvalue = [[5.0]\n[1.0]]", fillcolor="#e58139"] ;
745 -> 746 ;
747 [label="squared_error = 0.0\nsamples = 1\nvalue = [[5.0]\n[0.0]]", fillcolor="#e58139"] ;
745 -> 747 ;
748 [label="x[12] <= 5.5\nsquared_error = 2.046\nsamples = 199\nvalue = [[3.837]\n[1.602]]", fillcolor="#ea9c63"] ;
368 -> 748 ;
749 [label="x[15] <= 0.5\nsquared_error = 1.91\nsamples = 138\nvalue = [[3.686]\n[1.343]]", fillcolor="#ea9a60"] ;
748 -> 749 ;
750 [label="x[11] <= 8.5\nsquared_error = 7.181\nsamples = 6\nvalue = [[2.333]\n[2.833]]", fillcolor="#f8decb"] ;
749 -> 750 ;
751 [label="x[3] <= 0.5\nsquared_error = 2.4\nsamples = 5\nvalue = [[2.2]\n[1.4]]", fillcolor="#eba06a"] ;
750 -> 751 ;
752 [label="squared_error = 0.0\nsamples = 1\nvalue = [[0.0]\n[1.0]]", fillcolor="#e58139"] ;
751 -> 752 ;
753 [label="x[5] <= 0.5\nsquared_error = 1.222\nsamples = 4\nvalue = [[3.667]\n[1.667]]", fillcolor="#e89152"] ;
751 -> 753 ;
754 [label="x[0] <= 2.5\nsquared_error = 0.111\nsamples = 2\nvalue = [[3.0]\n[0.333]]", fillcolor="#e5823b"] ;
753 -> 754 ;
755 [label="squared_error = 0.0\nsamples = 1\nvalue = [[3.0]\n[1.0]]", fillcolor="#e58139"] ;
754 -> 755 ;
756 [label="squared_error = 0.0\nsamples = 1\nvalue = [[3.0]\n[0.0]]", fillcolor="#e58139"] ;
754 -> 756 ;
757 [label="x[13] <= 6.0\nsquared_error = 0.111\nsamples = 2\nvalue = [[4.333]\n[3.0]]", fillcolor="#e5823b"] ;
753 -> 757 ;
758 [label="squared_error = 0.0\nsamples = 1\nvalue = [[5.0]\n[3.0]]", fillcolor="#e58139"] ;
757 -> 758 ;
759 [label="squared_error = 0.0\nsamples = 1\nvalue = [[4.0]\n[3.0]]", fillcolor="#e58139"] ;
757 -> 759 ;
760 [label="squared_error = 0.0\nsamples = 1\nvalue = [[3.0]\n[10.0]]", fillcolor="#e58139"] ;
750 -> 760 ;
761 [label="x[10] <= 1.5\nsquared_error = 1.524\nsamples = 132\nvalue = [[3.757]\n[1.265]]", fillcolor="#e99558"] ;
749 -> 761 ;
762 [label="x[20] <= 605.2\nsquared_error = 1.362\nsamples = 89\nvalue = [[3.785]\n[0.962]]", fillcolor="#e99355"] ;
761 -> 762 ;
763 [label="x[1] <= 3.5\nsquared_error = 1.084\nsamples = 55\nvalue = [[4.071]\n[0.758]]", fillcolor="#e88f4f"] ;
762 -> 763 ;
764 [label="x[17] <= 1.5\nsquared_error = 1.139\nsamples = 37\nvalue = [[3.818]\n[0.5]]", fillcolor="#e89050"] ;
763 -> 764 ;
765 [label="x[15] <= 1.5\nsquared_error = 1.248\nsamples = 8\nvalue = [[4.091]\n[1.636]]", fillcolor="#e89152"] ;
764 -> 765 ;
766 [label="squared_error = 0.0\nsamples = 1\nvalue = [[1.0]\n[3.0]]", fillcolor="#e58139"] ;
765 -> 766 ;
767 [label="x[8] <= 0.5\nsquared_error = 0.745\nsamples = 7\nvalue = [[4.4]\n[1.5]]", fillcolor="#e78b48"] ;
765 -> 767 ;
768 [label="x[17] <= 0.5\nsquared_error = 0.219\nsamples = 3\nvalue = [[4.75]\n[0.5]]", fillcolor="#e6843d"] ;
767 -> 768 ;
769 [label="x[1] <= 1.0\nsquared_error = 0.125\nsamples = 2\nvalue = [[4.5]\n[1.0]]", fillcolor="#e5833c"] ;
768 -> 769 ;
770 [label="squared_error = 0.0\nsamples = 1\nvalue = [[5.0]\n[1.0]]", fillcolor="#e58139"] ;
769 -> 770 ;
771 [label="squared_error = 0.0\nsamples = 1\nvalue = [[4.0]\n[1.0]]", fillcolor="#e58139"] ;
769 -> 771 ;
772 [label="squared_error = 0.0\nsamples = 1\nvalue = [[5.0]\n[0.0]]", fillcolor="#e58139"] ;
768 -> 772 ;
773 [label="x[7] <= 6.0\nsquared_error = 0.472\nsamples = 4\nvalue = [[4.167]\n[2.167]]", fillcolor="#e68743"] ;
767 -> 773 ;
774 [label="x[9] <= 8.5\nsquared_error = 0.188\nsamples = 3\nvalue = [[3.75]\n[1.75]]", fillcolor="#e6833d"] ;
773 -> 774 ;
775 [label="squared_error = 0.0\nsamples = 2\nvalue = [[4.0]\n[2.0]]", fillcolor="#e58139"] ;
774 -> 775 ;
776 [label="squared_error = 0.0\nsamples = 1\nvalue = [[3.0]\n[1.0]]", fillcolor="#e58139"] ;
774 -> 776 ;
777 [label="squared_error = 0.0\nsamples = 1\nvalue = [[5.0]\n[3.0]]", fillcolor="#e58139"] ;
773 -> 777 ;
778 [label="x[20] <= 584.8\nsquared_error = 0.953\nsamples = 29\nvalue = [[3.764]\n[0.273]]", fillcolor="#e88d4c"] ;
764 -> 778 ;
779 [label="squared_error = 0.0\nsamples = 1\nvalue = [[2.0]\n[4.0]]", fillcolor="#e58139"] ;
778 -> 779 ;
780 [label="x[20] <= 600.85\nsquared_error = 0.81\nsamples = 28\nvalue = [[3.796]\n[0.204]]", fillcolor="#e78c4a"] ;
778 -> 780 ;
781 [label="x[7] <= 4.5\nsquared_error = 0.83\nsamples = 24\nvalue = [[3.568]\n[0.25]]", fillcolor="#e78c4a"] ;
780 -> 781 ;
782 [label="x[1] <= 2.5\nsquared_error = 0.769\nsamples = 17\nvalue = [[3.2]\n[0.233]]", fillcolor="#e78b49"] ;
781 -> 782 ;
783 [label="x[9] <= 6.5\nsquared_error = 0.569\nsamples = 14\nvalue = [[2.826]\n[0.304]]", fillcolor="#e78845"] ;
782 -> 783 ;
784 [label="x[10] <= 0.5\nsquared_error = 0.329\nsamples = 12\nvalue = [[2.55]\n[0.3]]", fillcolor="#e68540"] ;
783 -> 784 ;
785 [label="x[5] <= 3.0\nsquared_error = 0.195\nsamples = 8\nvalue = [[2.385]\n[0.0]]", fillcolor="#e6843d"] ;
784 -> 785 ;
786 [label="x[20] <= 598.5\nsquared_error = 0.061\nsamples = 5\nvalue = [[1.857]\n[0.0]]", fillcolor="#e5823a"] ;
785 -> 786 ;
787 [label="squared_error = 0.0\nsamples = 4\nvalue = [[2.0]\n[0.0]]", fillcolor="#e58139"] ;
786 -> 787 ;
788 [label="squared_error = 0.0\nsamples = 1\nvalue = [[1.0]\n[0.0]]", fillcolor="#e58139"] ;
786 -> 788 ;
789 [label="squared_error = 0.0\nsamples = 3\nvalue = [[3.0]\n[0.0]]", fillcolor="#e58139"] ;
785 -> 789 ;
790 [label="x[16] <= 1.0\nsquared_error = 0.265\nsamples = 4\nvalue = [[2.857]\n[0.857]]", fillcolor="#e6843e"] ;
784 -> 790 ;
791 [label="x[6] <= 1.5\nsquared_error = 0.111\nsamples = 3\nvalue = [[3.0]\n[0.667]]", fillcolor="#e5823b"] ;
790 -> 791 ;
792 [label="squared_error = 0.0\nsamples = 2\nvalue = [[3.0]\n[1.0]]", fillcolor="#e58139"] ;
791 -> 792 ;
793 [label="squared_error = 0.0\nsamples = 1\nvalue = [[3.0]\n[0.0]]", fillcolor="#e58139"] ;
791 -> 793 ;
794 [label="squared_error = 0.0\nsamples = 1\nvalue = [[2.0]\n[2.0]]", fillcolor="#e58139"] ;
790 -> 794 ;
795 [label="x[17] <= 6.0\nsquared_error = 0.222\nsamples = 2\nvalue = [[4.667]\n[0.333]]", fillcolor="#e6843e"] ;
783 -> 795 ;
796 [label="squared_error = 0.0\nsamples = 1\nvalue = [[4.0]\n[1.0]]", fillcolor="#e58139"] ;
795 -> 796 ;
797 [label="squared_error = 0.0\nsamples = 1\nvalue = [[5.0]\n[0.0]]", fillcolor="#e58139"] ;
795 -> 797 ;
798 [label="x[5] <= 1.5\nsquared_error = 0.408\nsamples = 3\nvalue = [[4.429]\n[0.0]]", fillcolor="#e68641"] ;
782 -> 798 ;
799 [label="squared_error = 0.0\nsamples = 1\nvalue = [[3.0]\n[0.0]]", fillcolor="#e58139"] ;
798 -> 799 ;
800 [label="squared_error = 0.0\nsamples = 2\nvalue = [[5.0]\n[0.0]]", fillcolor="#e58139"] ;
798 -> 800 ;
801 [label="x[4] <= 1.5\nsquared_error = 0.503\nsamples = 7\nvalue = [[4.357]\n[0.286]]", fillcolor="#e68843"] ;
781 -> 801 ;
802 [label="squared_error = 0.0\nsamples = 2\nvalue = [[5.0]\n[2.0]]", fillcolor="#e58139"] ;
801 -> 802 ;
803 [label="x[3] <= 2.5\nsquared_error = 0.26\nsamples = 5\nvalue = [[4.25]\n[0.0]]", fillcolor="#e6843e"] ;
801 -> 803 ;
804 [label="squared_error = 0.0\nsamples = 2\nvalue = [[5.0]\n[0.0]]", fillcolor="#e58139"] ;
803 -> 804 ;
805 [label="x[9] <= 3.5\nsquared_error = 0.102\nsamples = 3\nvalue = [[3.714]\n[0.0]]", fillcolor="#e5823b"] ;
803 -> 805 ;
806 [label="squared_error = 0.0\nsamples = 1\nvalue = [[3.0]\n[0.0]]", fillcolor="#e58139"] ;
805 -> 806 ;
807 [label="squared_error = 0.0\nsamples = 2\nvalue = [[4.0]\n[0.0]]", fillcolor="#e58139"] ;
805 -> 807 ;
808 [label="x[1] <= 2.5\nsquared_error = 0.08\nsamples = 4\nvalue = [[4.8]\n[0.0]]", fillcolor="#e5823b"] ;
780 -> 808 ;
809 [label="squared_error = 0.0\nsamples = 3\nvalue = [[5.0]\n[0.0]]", fillcolor="#e58139"] ;
808 -> 809 ;
810 [label="squared_error = 0.0\nsamples = 1\nvalue = [[4.0]\n[0.0]]", fillcolor="#e58139"] ;
808 -> 810 ;
811 [label="x[13] <= 6.5\nsquared_error = 0.585\nsamples = 18\nvalue = [[4.576]\n[1.273]]", fillcolor="#e78945"] ;
763 -> 811 ;
812 [label="x[16] <= 1.5\nsquared_error = 0.364\nsamples = 8\nvalue = [[4.667]\n[0.6]]", fillcolor="#e68640"] ;
811 -> 812 ;
813 [label="x[18] <= 2.5\nsquared_error = 0.215\nsamples = 6\nvalue = [[4.917]\n[0.75]]", fillcolor="#e6843d"] ;
812 -> 813 ;
814 [label="x[0] <= 1.5\nsquared_error = 0.109\nsamples = 4\nvalue = [[4.875]\n[1.125]]", fillcolor="#e5823b"] ;
813 -> 814 ;
815 [label="squared_error = 0.0\nsamples = 3\nvalue = [[5.0]\n[1.0]]", fillcolor="#e58139"] ;
814 -> 815 ;
816 [label="squared_error = 0.0\nsamples = 1\nvalue = [[4.0]\n[2.0]]", fillcolor="#e58139"] ;
814 -> 816 ;
817 [label="squared_error = 0.0\nsamples = 2\nvalue = [[5.0]\n[0.0]]", fillcolor="#e58139"] ;
813 -> 817 ;
818 [label="x[15] <= 4.5\nsquared_error = 0.111\nsamples = 2\nvalue = [[3.667]\n[0.0]]", fillcolor="#e5823b"] ;
812 -> 818 ;
819 [label="squared_error = 0.0\nsamples = 1\nvalue = [[3.0]\n[0.0]]", fillcolor="#e58139"] ;
818 -> 819 ;
820 [label="squared_error = 0.0\nsamples = 1\nvalue = [[4.0]\n[0.0]]", fillcolor="#e58139"] ;
818 -> 820 ;
821 [label="x[4] <= 3.5\nsquared_error = 0.417\nsamples = 10\nvalue = [[4.5]\n[1.833]]", fillcolor="#e68641"] ;
811 -> 821 ;
822 [label="x[2] <= 3.0\nsquared_error = 0.125\nsamples = 4\nvalue = [[5.0]\n[1.5]]", fillcolor="#e5833c"] ;
821 -> 822 ;
823 [label="squared_error = 0.0\nsamples = 2\nvalue = [[5.0]\n[1.0]]", fillcolor="#e58139"] ;
822 -> 823 ;
824 [label="squared_error = 0.0\nsamples = 2\nvalue = [[5.0]\n[2.0]]", fillcolor="#e58139"] ;
822 -> 824 ;
825 [label="x[11] <= 7.5\nsquared_error = 0.273\nsamples = 6\nvalue = [[3.875]\n[2.25]]", fillcolor="#e6853f"] ;
821 -> 825 ;
826 [label="squared_error = 0.0\nsamples = 1\nvalue = [[3.0]\n[3.0]]", fillcolor="#e58139"] ;
825 -> 826 ;
827 [label="x[17] <= 0.5\nsquared_error = 0.069\nsamples = 5\nvalue = [[4.167]\n[2.0]]", fillcolor="#e5823a"] ;
825 -> 827 ;
828 [label="squared_error = 0.0\nsamples = 1\nvalue = [[5.0]\n[2.0]]", fillcolor="#e58139"] ;
827 -> 828 ;
829 [label="squared_error = 0.0\nsamples = 4\nvalue = [[4.0]\n[2.0]]", fillcolor="#e58139"] ;
827 -> 829 ;
830 [label="x[5] <= 1.5\nsquared_error = 1.551\nsamples = 34\nvalue = [[3.305]\n[1.305]]", fillcolor="#e99559"] ;
762 -> 830 ;
831 [label="x[17] <= 3.5\nsquared_error = 1.355\nsamples = 23\nvalue = [[2.9]\n[1.075]]", fillcolor="#e99355"] ;
830 -> 831 ;
832 [label="x[13] <= 4.5\nsquared_error = 0.87\nsamples = 7\nvalue = [[2.077]\n[1.846]]", fillcolor="#e78c4b"] ;
831 -> 832 ;
833 [label="x[16] <= 2.5\nsquared_error = 0.111\nsamples = 2\nvalue = [[1.667]\n[3.0]]", fillcolor="#e5823b"] ;
832 -> 833 ;
834 [label="squared_error = 0.0\nsamples = 1\nvalue = [[2.0]\n[3.0]]", fillcolor="#e58139"] ;
833 -> 834 ;
835 [label="squared_error = 0.0\nsamples = 1\nvalue = [[1.0]\n[3.0]]", fillcolor="#e58139"] ;
833 -> 835 ;
836 [label="x[0] <= 2.5\nsquared_error = 0.327\nsamples = 5\nvalue = [[2.429]\n[0.857]]", fillcolor="#e68540"] ;
832 -> 836 ;
837 [label="x[12] <= 1.5\nsquared_error = 0.111\nsamples = 2\nvalue = [[2.0]\n[1.333]]", fillcolor="#e5823b"] ;
836 -> 837 ;
838 [label="squared_error = 0.0\nsamples = 1\nvalue = [[2.0]\n[2.0]]", fillcolor="#e58139"] ;
837 -> 838 ;
839 [label="squared_error = 0.0\nsamples = 1\nvalue = [[2.0]\n[1.0]]", fillcolor="#e58139"] ;
837 -> 839 ;
840 [label="x[18] <= 2.5\nsquared_error = 0.219\nsamples = 3\nvalue = [[2.75]\n[0.5]]", fillcolor="#e6843d"] ;
836 -> 840 ;
841 [label="x[5] <= 0.5\nsquared_error = 0.125\nsamples = 2\nvalue = [[2.5]\n[0.0]]", fillcolor="#e5833c"] ;
840 -> 841 ;
842 [label="squared_error = 0.0\nsamples = 1\nvalue = [[2.0]\n[0.0]]", fillcolor="#e58139"] ;
841 -> 842 ;
843 [label="squared_error = 0.0\nsamples = 1\nvalue = [[3.0]\n[0.0]]", fillcolor="#e58139"] ;
841 -> 843 ;
844 [label="squared_error = 0.0\nsamples = 1\nvalue = [[3.0]\n[1.0]]", fillcolor="#e58139"] ;
840 -> 844 ;
845 [label="x[7] <= 1.5\nsquared_error = 1.134\nsamples = 16\nvalue = [[3.296]\n[0.704]]", fillcolor="#e89050"] ;
831 -> 845 ;
846 [label="squared_error = 0.0\nsamples = 1\nvalue = [[1.0]\n[0.0]]", fillcolor="#e58139"] ;
845 -> 846 ;
847 [label="x[9] <= 6.5\nsquared_error = 0.871\nsamples = 15\nvalue = [[3.583]\n[0.792]]", fillcolor="#e78c4b"] ;
845 -> 847 ;
848 [label="x[2] <= 3.5\nsquared_error = 0.735\nsamples = 9\nvalue = [[3.143]\n[1.286]]", fillcolor="#e78b48"] ;
847 -> 848 ;
849 [label="x[16] <= 1.5\nsquared_error = 0.6\nsamples = 3\nvalue = [[4.0]\n[2.0]]", fillcolor="#e78945"] ;
848 -> 849 ;
850 [label="squared_error = 0.0\nsamples = 1\nvalue = [[4.0]\n[0.0]]", fillcolor="#e58139"] ;
849 -> 850 ;
851 [label="x[19] <= 0.5\nsquared_error = 0.125\nsamples = 2\nvalue = [[4.0]\n[2.5]]", fillcolor="#e5833c"] ;
849 -> 851 ;
852 [label="squared_error = 0.0\nsamples = 1\nvalue = [[4.0]\n[2.0]]", fillcolor="#e58139"] ;
851 -> 852 ;
853 [label="squared_error = 0.0\nsamples = 1\nvalue = [[4.0]\n[3.0]]", fillcolor="#e58139"] ;
851 -> 853 ;
854 [label="x[15] <= 4.0\nsquared_error = 0.272\nsamples = 6\nvalue = [[2.667]\n[0.889]]", fillcolor="#e6853f"] ;
848 -> 854 ;
855 [label="x[20] <= 613.85\nsquared_error = 0.16\nsamples = 4\nvalue = [[3.2]\n[0.8]]", fillcolor="#e5833c"] ;
854 -> 855 ;
856 [label="squared_error = 0.0\nsamples = 3\nvalue = [[3.0]\n[1.0]]", fillcolor="#e58139"] ;
855 -> 856 ;
857 [label="squared_error = 0.0\nsamples = 1\nvalue = [[4.0]\n[0.0]]", fillcolor="#e58139"] ;
855 -> 857 ;
858 [label="squared_error = 0.0\nsamples = 2\nvalue = [[2.0]\n[1.0]]", fillcolor="#e58139"] ;
854 -> 858 ;
859 [label="x[4] <= 4.5\nsquared_error = 0.325\nsamples = 6\nvalue = [[4.2]\n[0.1]]", fillcolor="#e68540"] ;
847 -> 859 ;
860 [label="x[0] <= 4.0\nsquared_error = 0.111\nsamples = 3\nvalue = [[3.667]\n[0.0]]", fillcolor="#e5823b"] ;
859 -> 860 ;
861 [label="squared_error = 0.0\nsamples = 2\nvalue = [[4.0]\n[0.0]]", fillcolor="#e58139"] ;
860 -> 861 ;
